[-0.106042,-0.881976,-0.243073,0.293617,-0.459835,0.681851,0.942071,0.670171,0.456368,-0.376455,0.563643,-0.572668,0.913477,0.432377,0.223381,-0.601471,-0.830283,-0.485023,0.712499,0.823061,;][-0.651019,;-0.954032,;-0.550041,;0.199036,;0.784446,;0.592788,;-0.202022,;-0.249704,;0.648334,;0.659304,;0.417699,;-0.651220,;-0.648569,;0.810744,;0.325954,;0.729536,;-1.050657,;-0.001682,;-0.256855,;0.829572,;]
[0.687814,-0.871502,-0.134336,0.232747,-0.764345,0.663037,0.942151,0.700008,0.328179,-0.535363,0.447715,-0.494725,0.915286,0.333470,0.157565,-0.723241,-0.808005,-0.484940,0.717825,0.820896,;][-0.625524,;-0.645909,;-0.266542,;-0.069170,;1.040391,;0.287304,;-0.511483,;-0.543767,;0.364839,;0.936775,;0.145410,;-0.357183,;-0.957728,;0.517013,;0.043037,;1.017239,;-0.743830,;0.301510,;-0.563741,;0.520390,;]
[0.682449,-0.880940,-0.269518,0.195036,-0.720151,0.675849,0.941904,0.638556,0.540795,-0.459311,0.551960,-0.588126,0.912070,0.493145,0.174070,-0.646541,-0.831058,-0.467164,0.704341,0.822576,;][-0.267581,;-1.003081,;-0.553963,;0.212148,;0.686797,;0.640624,;-0.152510,;-0.199398,;0.639994,;0.588214,;0.397335,;-0.681276,;-0.599120,;0.834368,;0.349467,;0.667921,;-1.098903,;-0.049951,;-0.207760,;0.879014,;]
[0.684792,-0.867537,-0.170683,0.056971,-0.761180,0.650777,0.941977,0.674171,0.466329,-0.543820,0.414537,-0.504862,0.914119,0.422015,0.061941,-0.737366,-0.803328,-0.463888,0.709773,0.819818,;][-0.604336,;-0.666919,;-0.239789,;-0.028228,;1.016929,;0.307800,;-0.490328,;-0.513545,;0.317377,;0.907142,;0.107165,;-0.359447,;-0.936561,;0.507601,;0.055588,;0.987892,;-0.764275,;0.279413,;-0.542270,;0.541537,;]
[0.679653,-0.877514,-0.255848,0.025035,-0.717934,0.665376,0.941739,0.605590,0.530582,-0.478718,0.498966,-0.586564,0.910953,0.495982,0.097451,-0.672898,-0.827494,-0.445538,0.696329,0.821555,;][-0.282977,;-0.987439,;-0.512482,;0.069914,;0.700016,;0.624067,;-0.167930,;-0.208843,;0.612499,;0.594100,;0.302814,;-0.651038,;-0.614538,;0.810633,;0.280772,;0.673984,;-1.082620,;-0.034440,;-0.223032,;0.863582,;]
[0.681855,-0.865416,-0.172710,-0.045699,-0.755032,0.642340,0.941812,0.646569,0.465029,-0.540490,0.373043,-0.517739,0.912853,0.438866,-0.024474,-0.737224,-0.802599,-0.443277,0.701747,0.819136,;][-0.554709,;-0.716293,;-0.261785,;0.020886,;0.965762,;0.356177,;-0.440622,;-0.454668,;0.354087,;0.852931,;0.091146,;-0.392446,;-0.886883,;0.547235,;0.072220,;0.933985,;-0.812887,;0.229605,;-0.492594,;0.591199,;]
[0.677982,-0.874369,-0.241164,-0.026848,-0.720152,0.656740,0.941635,0.586948,0.521126,-0.491150,0.438026,-0.580899,0.910348,0.492995,0.026943,-0.688084,-0.823639,-0.429489,0.691275,0.820694,;][-0.315415,;-0.954857,;-0.464696,;-0.004565,;0.730347,;0.591011,;-0.200461,;-0.232377,;0.572463,;0.620453,;0.203547,;-0.610458,;-0.647041,;0.774061,;0.184903,;0.700797,;-1.049671,;-0.002573,;-0.255193,;0.831067,;]
[0.679865,-0.865051,-0.181267,-0.023550,-0.749028,0.639123,0.941703,0.625679,0.472471,-0.534258,0.350988,-0.530746,0.911917,0.451863,-0.056184,-0.732928,-0.804448,-0.429349,0.696166,0.818885,;][-0.506578,;-0.764199,;-0.290688,;0.000974,;0.916983,;0.403052,;-0.392373,;-0.400763,;0.392141,;0.802955,;0.080844,;-0.429735,;-0.838676,;0.589292,;0.066849,;0.884063,;-0.860156,;0.182012,;-0.444589,;0.639398,;]
[0.677302,-0.872048,-0.228920,-0.022972,-0.724082,0.650957,0.941586,0.582525,0.513038,-0.500229,0.392296,-0.574396,0.910162,0.488243,-0.021758,-0.698483,-0.820330,-0.420959,0.689110,0.820111,;][-0.347999,;-0.922226,;-0.426224,;-0.001379,;0.761411,;0.558328,;-0.233155,;-0.256646,;0.536882,;0.649478,;0.140559,;-0.574752,;-0.679698,;0.740055,;0.125113,;0.730112,;-1.016922,;0.029052,;-0.287471,;0.798399,;]
[0.678744,-0.865556,-0.189990,-0.022342,-0.744312,0.638994,0.941643,0.612316,0.480423,-0.528527,0.344069,-0.540780,0.911338,0.460847,-0.065717,-0.728225,-0.806917,-0.422085,0.692982,0.818883,;][-0.470722,;-0.799897,;-0.315971,;0.000062,;0.881051,;0.437974,;-0.356406,;-0.363094,;0.422100,;0.766726,;0.079186,;-0.459643,;-0.802748,;0.621880,;0.066022,;0.847762,;-0.895433,;0.146984,;-0.408921,;0.675323,;]
[0.677163,-0.870473,-0.219974,-0.022320,-0.727846,0.647403,0.941570,0.584490,0.506687,-0.506684,0.369281,-0.568642,0.910192,0.483702,-0.044785,-0.705618,-0.817753,-0.417540,0.688600,0.819751,;][-0.373698,;-0.896538,;-0.399518,;-0.000762,;0.786151,;0.532803,;-0.258951,;-0.276691,;0.510693,;0.673209,;0.111411,;-0.548476,;-0.705461,;0.714215,;0.098791,;0.753986,;-0.991252,;0.053813,;-0.312911,;0.772631,;]
[0.678170,-0.866216,-0.196289,-0.022114,-0.741083,0.639824,0.941613,0.604611,0.486141,-0.524373,0.344074,-0.547321,0.911010,0.466421,-0.067077,-0.724519,-0.808935,-0.418880,0.691350,0.818962,;][-0.447866,;-0.822655,;-0.333640,;-0.000194,;0.858336,;0.460247,;-0.333468,;-0.340443,;0.441912,;0.744040,;0.081170,;-0.479493,;-0.779841,;0.643083,;0.068348,;0.824992,;-0.917946,;0.124844,;-0.386231,;0.698232,;]
[0.677217,-0.869467,-0.214173,-0.022154,-0.730652,0.645322,0.941569,0.587590,0.502276,-0.510898,0.359188,-0.564403,0.910284,0.480280,-0.054581,-0.710215,-0.815942,-0.416476,0.688705,0.819538,;][-0.390944,;-0.879322,;-0.382854,;-0.000541,;0.802831,;0.515782,;-0.276268,;-0.290650,;0.493813,;0.689395,;0.098904,;-0.531529,;-0.722751,;0.697226,;0.087534,;0.770235,;-0.974095,;0.070365,;-0.329971,;0.755336,;]
[0.678099,-0.865575,-0.198909,-0.022068,-0.741915,0.639239,0.941612,0.603326,0.486973,-0.524183,0.344810,-0.548012,0.911079,0.467380,-0.066356,-0.725824,-0.808073,-0.417751,0.691135,0.818839,;][-0.437663,;-0.832928,;-0.342148,;-0.000491,;0.847754,;0.470512,;-0.323300,;-0.328827,;0.451610,;0.733496,;0.085400,;-0.489301,;-0.769643,;0.653003,;0.069254,;0.814178,;-0.928255,;0.114649,;-0.375921,;0.708418,;]
[0.677357,-0.868479,-0.209894,-0.022124,-0.733578,0.643604,0.941573,0.591213,0.498488,-0.514538,0.354093,-0.560561,0.910432,0.477212,-0.059409,-0.714601,-0.814120,-0.416222,0.689076,0.819343,;][-0.403535,;-0.866785,;-0.371320,;-0.000492,;0.814880,;0.503474,;-0.288935,;-0.300504,;0.481928,;0.701145,;0.093207,;-0.519594,;-0.735386,;0.685049,;0.081398,;0.781928,;-0.961646,;0.082328,;-0.342369,;0.742694,;]
[0.677902,-0.866106,-0.201359,-0.022082,-0.740314,0.640029,0.941601,0.600511,0.489589,-0.522237,0.346500,-0.550938,0.910932,0.469685,-0.065471,-0.723810,-0.809328,-0.417084,0.690583,0.818922,;][-0.429630,;-0.840902,;-0.348770,;-0.000505,;0.839896,;0.478272,;-0.315221,;-0.321602,;0.458592,;0.725726,;0.086691,;-0.496267,;-0.761584,;0.660469,;0.071489,;0.806380,;-0.936112,;0.106990,;-0.367994,;0.716479,;]
[0.677481,-0.867832,-0.207313,-0.022112,-0.735474,0.642555,0.941578,0.593727,0.496014,-0.516792,0.351509,-0.557968,0.910550,0.475160,-0.061707,-0.717305,-0.812869,-0.416287,0.689415,0.819221,;][-0.411271,;-0.859095,;-0.364451,;-0.000479,;0.822290,;0.495956,;-0.296722,;-0.306665,;0.474817,;0.708402,;0.090595,;-0.512465,;-0.743151,;0.677664,;0.078148,;0.789148,;-0.954034,;0.089657,;-0.349976,;0.734925,;]
[0.677813,-0.866385,-0.202548,-0.022089,-0.739500,0.640450,0.941596,0.599174,0.490852,-0.521259,0.347412,-0.552336,0.910861,0.470782,-0.064899,-0.722758,-0.809957,-0.416828,0.690334,0.818967,;][-0.425821,;-0.844683,;-0.351960,;-0.000509,;0.836188,;0.481952,;-0.311388,;-0.318274,;0.461932,;0.722067,;0.087413,;-0.499601,;-0.757761,;0.664024,;0.072671,;0.802713,;-0.939838,;0.103369,;-0.364240,;0.720304,;]
[0.677580,-0.867374,-0.205662,-0.022105,-0.736785,0.641855,0.941583,0.595494,0.494321,-0.518290,0.350010,-0.556153,0.910643,0.473738,-0.062956,-0.719119,-0.811962,-0.416414,0.689688,0.819139,;][-0.416266,;-0.854139,;-0.360102,;-0.000482,;0.827068,;0.491126,;-0.301753,;-0.310650,;0.470318,;0.713092,;0.089262,;-0.507964,;-0.748165,;0.672943,;0.076193,;0.793808,;-0.949140,;0.094375,;-0.354880,;0.729908,;]
[0.677783,-0.866478,-0.202965,-0.022092,-0.739226,0.640596,0.941595,0.598717,0.491288,-0.520921,0.347746,-0.552815,0.910839,0.471159,-0.064681,-0.722401,-0.810168,-0.416745,0.690251,0.818983,;][-0.424493,;-0.846002,;-0.353078,;-0.000511,;0.834893,;0.483237,;-0.310052,;-0.317112,;0.463103,;0.720792,;0.087690,;-0.500771,;-0.756428,;0.665267,;0.073096,;0.801432,;-0.941140,;0.102105,;-0.362930,;0.721637,;]
[0.677661,-0.867010,-0.204494,-0.022100,-0.737797,0.641328,0.941588,0.596840,0.493049,-0.519402,0.349006,-0.554765,0.910720,0.472660,-0.063747,-0.720493,-0.811235,-0.416539,0.689913,0.819074,;][-0.419816,;-0.850624,;-0.357051,;-0.000491,;0.830452,;0.487712,;-0.305333,;-0.313453,;0.467174,;0.716418,;0.088495,;-0.504825,;-0.751730,;0.669615,;0.074842,;0.797106,;-0.945678,;0.097717,;-0.358358,;0.726339,;]
[0.677790,-0.866432,-0.202905,-0.022093,-0.739337,0.640543,0.941595,0.598820,0.491195,-0.521016,0.347700,-0.552710,0.910848,0.471081,-0.064723,-0.722550,-0.810086,-0.416747,0.690272,0.818975,;][-0.424658,;-0.845842,;-0.352938,;-0.000515,;0.835035,;0.483086,;-0.310221,;-0.317191,;0.462970,;0.720933,;0.087696,;-0.500641,;-0.756595,;0.665119,;0.073010,;0.801563,;-0.940986,;0.102253,;-0.363086,;0.721469,;]
[0.677735,-0.866678,-0.203552,-0.022096,-0.738689,0.640871,0.941592,0.597995,0.491966,-0.520345,0.348225,-0.553569,0.910793,0.471739,-0.064339,-0.721688,-0.810576,-0.416657,0.690119,0.819017,;][-0.422683,;-0.847791,;-0.354609,;-0.000504,;0.833169,;0.484969,;-0.308226,;-0.315677,;0.464674,;0.719094,;0.087991,;-0.502334,;-0.754610,;0.666947,;0.073756,;0.799750,;-0.942896,;0.100405,;-0.361159,;0.723456,;]
[0.677824,-0.866275,-0.202539,-0.022091,-0.739741,0.640342,0.941597,0.599309,0.490741,-0.521417,0.347408,-0.552200,0.910884,0.470693,-0.064938,-0.723084,-0.809779,-0.416798,0.690365,0.818948,;][-0.425770,;-0.844748,;-0.352001,;-0.000524,;0.836076,;0.482032,;-0.311345,;-0.318013,;0.462022,;0.721959,;0.087559,;-0.499700,;-0.757712,;0.664095,;0.072581,;0.802569,;-0.939916,;0.103287,;-0.364167,;0.720350,;]
[0.677810,-0.866338,-0.202691,-0.022092,-0.739578,0.640423,0.941597,0.599109,0.490928,-0.521254,0.347529,-0.552410,0.910869,0.470853,-0.064851,-0.722869,-0.809903,-0.416776,0.690326,0.818958,;][-0.425308,;-0.845203,;-0.352390,;-0.000521,;0.835642,;0.482471,;-0.310878,;-0.317667,;0.462416,;0.721531,;0.087617,;-0.500091,;-0.757248,;0.664521,;0.072757,;0.802149,;-0.940361,;0.102857,;-0.363717,;0.720815,;]
[0.677879,-0.866020,-0.201961,-0.022088,-0.740388,0.640020,0.941601,0.600092,0.490014,-0.522057,0.346951,-0.551381,0.910941,0.470070,-0.065267,-0.723937,-0.809280,-0.416882,0.690517,0.818904,;][-0.427530,;-0.843017,;-0.350521,;-0.000539,;0.837722,;0.480366,;-0.313126,;-0.319314,;0.460529,;0.723585,;0.087363,;-0.498220,;-0.759482,;0.662479,;0.071906,;0.804162,;-0.938226,;0.104924,;-0.365877,;0.718578,;]
[0.677892,-0.865959,-0.201826,-0.022088,-0.740543,0.639943,0.941602,0.600278,0.489842,-0.522209,0.346846,-0.551186,0.910956,0.469923,-0.065342,-0.724141,-0.809160,-0.416903,0.690554,0.818894,;][-0.427942,;-0.842613,;-0.350176,;-0.000542,;0.838106,;0.479978,;-0.313542,;-0.319616,;0.460181,;0.723964,;0.087322,;-0.497876,;-0.759895,;0.662102,;0.071748,;0.804533,;-0.937832,;0.105306,;-0.366276,;0.718164,;]
[0.678601,-0.862407,-0.196126,-0.022062,-0.748830,0.635990,0.941654,0.609080,0.481732,-0.529585,0.342672,-0.541826,0.911794,0.462896,-0.068246,-0.734818,-0.802457,-0.417861,0.692502,0.818297,;][-0.445341,;-0.825704,;-0.335795,;-0.000789,;0.853877,;0.463867,;-0.331219,;-0.331146,;0.446110,;0.739672,;0.086989,;-0.484082,;-0.777398,;0.646483,;0.064807,;0.819584,;-0.921501,;0.121240,;-0.382970,;0.700611,;]
[0.678194,-0.864395,-0.199135,-0.022082,-0.744363,0.638139,0.941623,0.604293,0.486173,-0.525629,0.344875,-0.547006,0.911314,0.466773,-0.066850,-0.729139,-0.806261,-0.417265,0.691388,0.818623,;][-0.436018,;-0.834736,;-0.343427,;-0.000649,;0.845419,;0.472450,;-0.321741,;-0.324927,;0.453507,;0.731240,;0.086938,;-0.491297,;-0.768019,;0.654777,;0.068475,;0.811492,;-0.930187,;0.112716,;-0.374037,;0.710018,;]
[0.678629,-0.862209,-0.195943,-0.022065,-0.749294,0.635798,0.941657,0.609409,0.481452,-0.529921,0.342583,-0.541510,0.911840,0.462656,-0.068378,-0.735422,-0.802148,-0.417859,0.692579,0.818260,;][-0.445841,;-0.825232,;-0.335369,;-0.000803,;0.854257,;0.463425,;-0.331735,;-0.331283,;0.445717,;0.740069,;0.087041,;-0.483699,;-0.777902,;0.646038,;0.064552,;0.819908,;-0.921052,;0.121674,;-0.383427,;0.700101,;]
[0.678460,-0.863054,-0.197112,-0.022072,-0.747441,0.636681,0.941643,0.607491,0.483229,-0.528321,0.343421,-0.543593,0.911634,0.464214,-0.067850,-0.733080,-0.803746,-0.417620,0.692116,0.818398,;][-0.442209,;-0.828737,;-0.338330,;-0.000743,;0.850994,;0.466745,;-0.328037,;-0.328941,;0.448555,;0.736805,;0.086935,;-0.486455,;-0.774247,;0.649248,;0.065996,;0.816799,;-0.924408,;0.118368,;-0.379961,;0.703769,;]
[0.678749,-0.861587,-0.195161,-0.022060,-0.750647,0.635168,0.941667,0.610729,0.480236,-0.531049,0.342044,-0.540084,0.911993,0.461588,-0.068736,-0.737127,-0.800999,-0.418013,0.692906,0.818157,;][-0.448260,;-0.822911,;-0.333400,;-0.000847,;0.856391,;0.461233,;-0.334203,;-0.332748,;0.443851,;0.742216,;0.087166,;-0.481892,;-0.780337,;0.643913,;0.063567,;0.821924,;-0.918836,;0.123863,;-0.385722,;0.697657,;]
[0.678714,-0.861760,-0.195380,-0.022062,-0.750277,0.635342,0.941664,0.610359,0.480579,-0.530738,0.342197,-0.540488,0.911950,0.461890,-0.068641,-0.736664,-0.801323,-0.417966,0.692813,0.818185,;][-0.447577,;-0.823566,;-0.333953,;-0.000835,;0.855784,;0.461851,;-0.333507,;-0.332323,;0.444374,;0.741607,;0.087129,;-0.482398,;-0.779650,;0.644511,;0.063841,;0.821348,;-0.919461,;0.123244,;-0.385073,;0.698346,;]
[0.678932,-0.860648,-0.194032,-0.022053,-0.752634,0.634237,0.941682,0.612673,0.478438,-0.532699,0.341261,-0.537960,0.912226,0.459999,-0.069222,-0.739612,-0.799252,-0.418258,0.693404,0.818003,;][-0.451794,;-0.819531,;-0.330540,;-0.000914,;0.859507,;0.458045,;-0.337811,;-0.334892,;0.441165,;0.745355,;0.087405,;-0.479304,;-0.783893,;0.640830,;0.062137,;0.824873,;-0.915623,;0.127055,;-0.389069,;0.694084,;]
[0.678978,-0.860409,-0.193756,-0.022051,-0.753131,0.634005,0.941686,0.613154,0.477992,-0.533109,0.341071,-0.537431,0.912286,0.459603,-0.069337,-0.740230,-0.798807,-0.418321,0.693530,0.817964,;][-0.452662,;-0.818703,;-0.329840,;-0.000931,;0.860270,;0.457266,;-0.338697,;-0.335414,;0.440512,;0.746125,;0.087474,;-0.478677,;-0.784766,;0.640076,;0.061786,;0.825594,;-0.914838,;0.127838,;-0.389890,;0.693206,;]
[0.679164,-0.859448,-0.192694,-0.022043,-0.755107,0.633084,0.941703,0.615038,0.476247,-0.534719,0.340344,-0.535358,0.912529,0.458050,-0.069772,-0.742681,-0.797027,-0.418567,0.694034,0.817808,;][-0.456017,;-0.815513,;-0.327141,;-0.001000,;0.863201,;0.454267,;-0.342128,;-0.337389,;0.438015,;0.749089,;0.087783,;-0.476287,;-0.788143,;0.637177,;0.060419,;0.828358,;-0.911824,;0.130857,;-0.393054,;0.689812,;]
[0.679262,-0.858939,-0.192158,-0.022039,-0.756134,0.632606,0.941712,0.616003,0.475351,-0.535547,0.339980,-0.534290,0.912659,0.457250,-0.069986,-0.743948,-0.796088,-0.418697,0.694299,0.817726,;][-0.457720,;-0.813900,;-0.325777,;-0.001036,;0.864681,;0.452754,;-0.343870,;-0.338374,;0.436764,;0.750589,;0.087963,;-0.475094,;-0.789856,;0.635714,;0.059723,;0.829751,;-0.910306,;0.132385,;-0.394655,;0.688090,;]
[0.679439,-0.858014,-0.191227,-0.022031,-0.757975,0.631753,0.941728,0.617706,0.473770,-0.537017,0.339352,-0.532401,0.912896,0.455832,-0.070349,-0.746212,-0.794388,-0.418928,0.694777,0.817576,;][-0.460693,;-0.811094,;-0.323400,;-0.001101,;0.867247,;0.450127,;-0.346916,;-0.340059,;0.434604,;0.753198,;0.088315,;-0.473044,;-0.792847,;0.633173,;0.058502,;0.832163,;-0.907674,;0.135046,;-0.397443,;0.685080,;]
[0.679573,-0.857313,-0.190553,-0.022026,-0.759349,0.631118,0.941740,0.618958,0.472606,-0.538102,0.338901,-0.531007,0.913078,0.454784,-0.070604,-0.747892,-0.793102,-0.419101,0.695137,0.817463,;][-0.462857,;-0.809060,;-0.321676,;-0.001151,;0.869105,;0.448225,;-0.349136,;-0.341263,;0.433052,;0.755093,;0.088601,;-0.471578,;-0.795026,;0.631333,;0.057610,;0.833905,;-0.905774,;0.136979,;-0.399468,;0.682888,;]
[0.679753,-0.856362,-0.189680,-0.022018,-0.761182,0.630273,0.941758,0.620602,0.471077,-0.539536,0.338320,-0.529170,0.913326,0.453401,-0.070927,-0.750125,-0.791366,-0.419333,0.695621,0.817311,;][-0.465677,;-0.806423,;-0.319437,;-0.001217,;0.871508,;0.445763,;-0.352031,;-0.342797,;0.431058,;0.757550,;0.089009,;-0.469702,;-0.797862,;0.628952,;0.056442,;0.836154,;-0.903320,;0.139490,;-0.402097,;0.680032,;]
[0.679914,-0.855511,-0.188935,-0.022011,-0.762795,0.629532,0.941773,0.622028,0.469749,-0.540787,0.337827,-0.527571,0.913550,0.452195,-0.071195,-0.752083,-0.789818,-0.419537,0.696051,0.817174,;][-0.468102,;-0.804165,;-0.317517,;-0.001276,;0.873562,;0.443660,;-0.354523,;-0.344089,;0.429366,;0.759657,;0.089392,;-0.468120,;-0.800302,;0.626916,;0.055433,;0.838072,;-0.901230,;0.141645,;-0.404351,;0.677574,;]
[0.682368,-0.841949,-0.180039,-0.021930,-0.786617,0.618992,0.942049,0.640290,0.452617,-0.557977,0.332451,-0.506823,0.917349,0.436191,-0.074104,-0.780224,-0.766407,-0.422283,0.702491,0.814964,;][-0.498016,;-0.777400,;-0.294170,;-0.002176,;0.897153,;0.418951,;-0.385563,;-0.356747,;0.410326,;0.784714,;0.096581,;-0.450955,;-0.830344,;0.602764,;0.042425,;0.859511,;-0.877221,;0.167677,;-0.431384,;0.647155,;]
[0.680870,-0.850047,-0.184817,-0.022007,-0.773708,0.624947,0.941872,0.629983,0.462365,-0.548496,0.335641,-0.518768,0.915069,0.445489,-0.072862,-0.765164,-0.780787,-0.420455,0.698625,0.816214,;][-0.481140,;-0.792214,;-0.307134,;-0.001651,;0.883574,;0.432587,;-0.368033,;-0.349233,;0.420414,;0.770405,;0.092110,;-0.459767,;-0.813399,;0.616003,;0.049703,;0.846990,;-0.890134,;0.153008,;-0.416143,;0.664310,;]
[0.682316,-0.842098,-0.180117,-0.021952,-0.786901,0.619050,0.942043,0.639943,0.452970,-0.557959,0.332755,-0.507340,0.917344,0.436573,-0.074239,-0.780558,-0.767121,-0.422090,0.702376,0.814936,;][-0.497410,;-0.777938,;-0.294560,;-0.002168,;0.896276,;0.419450,;-0.384967,;-0.355829,;0.410562,;0.783980,;0.096482,;-0.451090,;-0.829725,;0.603146,;0.042591,;0.858532,;-0.877577,;0.167086,;-0.430725,;0.647754,;]
[0.681637,-0.845800,-0.182143,-0.021983,-0.781093,0.621694,0.941960,0.635508,0.457168,-0.553772,0.334066,-0.512476,0.916277,0.440612,-0.073722,-0.773833,-0.773553,-0.421295,0.700633,0.815515,;][-0.490172,;-0.784187,;-0.300102,;-0.001931,;0.890593,;0.425193,;-0.377424,;-0.352868,;0.414754,;0.777917,;0.094405,;-0.454697,;-0.822465,;0.608752,;0.045755,;0.853339,;-0.882957,;0.160836,;-0.424255,;0.655119,;]
[0.682523,-0.840936,-0.179531,-0.021948,-0.788829,0.618235,0.942070,0.641199,0.451782,-0.559264,0.332452,-0.505909,0.917700,0.435426,-0.074421,-0.782770,-0.765262,-0.422287,0.702905,0.814738,;][-0.499453,;-0.776217,;-0.292983,;-0.002242,;0.897718,;0.417871,;-0.387115,;-0.356405,;0.409400,;0.785606,;0.097146,;-0.450095,;-0.831767,;0.601568,;0.041658,;0.859787,;-0.876090,;0.168818,;-0.432495,;0.645668,;]
[0.682273,-0.842300,-0.180221,-0.021959,-0.786735,0.619178,0.942038,0.639663,0.453238,-0.557778,0.332890,-0.507689,0.917297,0.436842,-0.074252,-0.780364,-0.767590,-0.422005,0.702271,0.814953,;][-0.496949,;-0.778336,;-0.294893,;-0.002156,;0.895801,;0.419817,;-0.384496,;-0.355466,;0.410795,;0.783532,;0.096369,;-0.451271,;-0.829259,;0.603477,;0.042768,;0.858050,;-0.877885,;0.166669,;-0.430281,;0.648219,;]
[0.682851,-0.839131,-0.178665,-0.021935,-0.791603,0.617011,0.942113,0.643133,0.449945,-0.561195,0.331929,-0.503670,0.918246,0.433626,-0.074638,-0.785937,-0.762254,-0.422640,0.703735,0.814446,;][-0.502613,;-0.773585,;-0.290575,;-0.002355,;0.900058,;0.415456,;-0.390432,;-0.357463,;0.407682,;0.788183,;0.098187,;-0.448666,;-0.834928,;0.599180,;0.040238,;0.861878,;-0.873882,;0.171510,;-0.435257,;0.642446,;]
[0.682824,-0.839280,-0.178735,-0.021936,-0.791379,0.617111,0.942109,0.642975,0.450095,-0.561038,0.331973,-0.503854,0.918201,0.433774,-0.074622,-0.785682,-0.762504,-0.422610,0.703667,0.814470,;][-0.502355,;-0.773798,;-0.290771,;-0.002346,;0.899866,;0.415652,;-0.390161,;-0.357375,;0.407820,;0.787972,;0.098101,;-0.448779,;-0.834670,;0.599373,;0.040354,;0.861706,;-0.874059,;0.171290,;-0.435031,;0.642709,;]
[0.683228,-0.837067,-0.177737,-0.021920,-0.794679,0.615652,0.942164,0.645245,0.447935,-0.563327,0.331360,-0.501218,0.918880,0.431634,-0.074853,-0.789426,-0.758835,-0.423044,0.704679,0.814114,;][-0.506076,;-0.770758,;-0.287950,;-0.002484,;0.902593,;0.412861,;-0.394077,;-0.358570,;0.405874,;0.790996,;0.099388,;-0.447198,;-0.838388,;0.596606,;0.038670,;0.864139,;-0.871559,;0.174449,;-0.438262,;0.638913,;]
[0.683308,-0.836625,-0.177546,-0.021916,-0.795326,0.615367,0.942175,0.645683,0.447517,-0.563773,0.331242,-0.500709,0.919018,0.431217,-0.074895,-0.790156,-0.758108,-0.423130,0.704880,0.814043,;][-0.506796,;-0.770178,;-0.287405,;-0.002511,;0.903115,;0.412328,;-0.394837,;-0.358790,;0.405508,;0.791579,;0.099647,;-0.446906,;-0.839107,;0.596077,;0.038342,;0.864603,;-0.871090,;0.175059,;-0.438884,;0.638178,;]
[0.683607,-0.834993,-0.176866,-0.021905,-0.797697,0.614328,0.942218,0.647253,0.446017,-0.565400,0.330829,-0.498882,0.919533,0.429711,-0.075042,-0.792824,-0.755449,-0.423442,0.705621,0.813778,;][-0.509392,;-0.768119,;-0.285446,;-0.002612,;0.904962,;0.410435,;-0.397579,;-0.359535,;0.404220,;0.793663,;0.100608,;-0.445894,;-0.841695,;0.594187,;0.037151,;0.866234,;-0.869442,;0.177246,;-0.441107,;0.635529,;]
[0.683731,-0.834321,-0.176597,-0.021900,-0.798660,0.613907,0.942235,0.647879,0.445417,-0.566057,0.330666,-0.498153,0.919748,0.429104,-0.075099,-0.793902,-0.754364,-0.423569,0.705924,0.813668,;][-0.510431,;-0.767308,;-0.284663,;-0.002653,;0.905691,;0.409688,;-0.398681,;-0.359815,;0.403719,;0.794493,;0.101006,;-0.445507,;-0.842730,;0.593438,;0.036670,;0.866875,;-0.868803,;0.178120,;-0.441992,;0.634467,;]
[0.683957,-0.833089,-0.176121,-0.021891,-0.800409,0.613148,0.942269,0.648992,0.444349,-0.567245,0.330380,-0.496856,0.920148,0.428017,-0.075196,-0.795852,-0.752397,-0.423799,0.706479,0.813465,;][-0.512291,;-0.765881,;-0.283265,;-0.002729,;0.906970,;0.408372,;-0.400656,;-0.360280,;0.402845,;0.795967,;0.101741,;-0.444846,;-0.844580,;0.592112,;0.035804,;0.867992,;-0.867694,;0.179677,;-0.443562,;0.632566,;]
[0.684084,-0.832405,-0.175867,-0.021886,-0.801371,0.612732,0.942288,0.649591,0.443773,-0.567895,0.330228,-0.496157,0.920375,0.427426,-0.075247,-0.796919,-0.751316,-0.423925,0.706786,0.813352,;][-0.513301,;-0.765120,;-0.282507,;-0.002771,;0.907652,;0.407669,;-0.401730,;-0.360514,;0.402385,;0.796761,;0.102151,;-0.444504,;-0.845582,;0.591400,;0.035330,;0.868584,;-0.867112,;0.180519,;-0.444408,;0.631534,;]
[0.684956,-0.827882,-0.174482,-0.021862,-0.807468,0.610196,0.942440,0.652807,0.440566,-0.571909,0.329491,-0.492338,0.922087,0.423981,-0.075499,-0.803452,-0.744756,-0.424681,0.708806,0.812519,;][-0.519205,;-0.761294,;-0.278092,;-0.003058,;0.910934,;0.404041,;-0.408148,;-0.360955,;0.400202,;0.801101,;0.105046,;-0.443168,;-0.851352,;0.587520,;0.032386,;0.871213,;-0.864522,;0.185305,;-0.449012,;0.625478,;]
[0.684305,-0.831215,-0.175461,-0.021881,-0.803062,0.612031,0.942324,0.650517,0.442862,-0.569003,0.330023,-0.495067,0.920803,0.426472,-0.075335,-0.798751,-0.749538,-0.424120,0.707317,0.813137,;][-0.514927,;-0.763959,;-0.281282,;-0.002845,;0.908597,;0.406596,;-0.403483,;-0.360705,;0.401699,;0.797971,;0.102891,;-0.444028,;-0.847183,;0.590277,;0.034536,;0.869352,;-0.866249,;0.181850,;-0.445709,;0.629865,;]
[0.684581,-0.829816,-0.175054,-0.021874,-0.804921,0.611263,0.942374,0.651454,0.441914,-0.570225,0.329812,-0.493945,0.921357,0.425438,-0.075407,-0.800721,-0.747559,-0.424350,0.707944,0.812870,;][-0.516711,;-0.762871,;-0.279949,;-0.002936,;0.909521,;0.405549,;-0.405436,;-0.360757,;0.401089,;0.799254,;0.103810,;-0.443689,;-0.848914,;0.589133,;0.033631,;0.870070,;-0.865551,;0.183283,;-0.447065,;0.628034,;]
[0.684203,-0.831711,-0.175591,-0.021884,-0.802426,0.612292,0.942303,0.650222,0.443169,-0.568584,0.330089,-0.495426,0.920590,0.426818,-0.075315,-0.798091,-0.750206,-0.424040,0.707093,0.813237,;][-0.514320,;-0.764279,;-0.281736,;-0.002812,;0.908325,;0.406916,;-0.402809,;-0.360741,;0.401870,;0.797552,;0.102548,;-0.444097,;-0.846602,;0.590644,;0.034856,;0.869156,;-0.866422,;0.181370,;-0.445270,;0.630489,;]
[0.684164,-0.831906,-0.175645,-0.021885,-0.802170,0.612397,0.942296,0.650099,0.443296,-0.568415,0.330116,-0.495574,0.920510,0.426958,-0.075306,-0.797823,-0.750474,-0.424008,0.707006,0.813276,;][-0.514076,;-0.764418,;-0.281918,;-0.002799,;0.908209,;0.407052,;-0.402540,;-0.360746,;0.401947,;0.797381,;0.102416,;-0.444135,;-0.846367,;0.590797,;0.034983,;0.869071,;-0.866507,;0.181176,;-0.445090,;0.630739,;]
[0.683848,-0.833460,-0.176071,-0.021892,-0.800135,0.613231,0.942235,0.649143,0.444288,-0.567075,0.330324,-0.496736,0.919848,0.428065,-0.075233,-0.795703,-0.752591,-0.423760,0.706305,0.813591,;][-0.512137,;-0.765489,;-0.283371,;-0.002694,;0.907335,;0.408110,;-0.400392,;-0.360834,;0.402533,;0.796041,;0.101343,;-0.444406,;-0.844508,;0.591998,;0.035998,;0.868439,;-0.867133,;0.179637,;-0.443679,;0.632733,;]
[0.683621,-0.834556,-0.176367,-0.021897,-0.798702,0.613817,0.942190,0.648486,0.444977,-0.566130,0.330464,-0.497538,0.919370,0.428838,-0.075181,-0.794221,-0.754065,-0.423586,0.705808,0.813820,;][-0.510773,;-0.766217,;-0.284395,;-0.002619,;0.906758,;0.408835,;-0.398874,;-0.360933,;0.402929,;0.795114,;0.100572,;-0.444576,;-0.843207,;0.592835,;0.036719,;0.868037,;-0.867546,;0.178561,;-0.442705,;0.634136,;]
[0.683268,-0.836248,-0.176818,-0.021904,-0.796501,0.614716,0.942119,0.647500,0.446021,-0.564673,0.330671,-0.498751,0.918611,0.430019,-0.075101,-0.791957,-0.756311,-0.423322,0.705039,0.814182,;][-0.508673,;-0.767297,;-0.285976,;-0.002501,;0.905925,;0.409923,;-0.396526,;-0.361143,;0.403512,;0.793710,;0.099355,;-0.444803,;-0.841216,;0.594110,;0.037843,;0.867481,;-0.868136,;0.176910,;-0.441230,;0.636297,;]
[0.682907,-0.837948,-0.177267,-0.021911,-0.794295,0.615616,0.942045,0.646536,0.447055,-0.563209,0.330870,-0.499946,0.917827,0.431197,-0.075021,-0.789706,-0.758540,-0.423060,0.704263,0.814555,;][-0.506562,;-0.768340,;-0.287568,;-0.002379,;0.905151,;0.410987,;-0.394155,;-0.361412,;0.404073,;0.792326,;0.098105,;-0.444998,;-0.839226,;0.595379,;0.038986,;0.866991,;-0.868686,;0.175260,;-0.439778,;0.638472,;]
[0.682472,-0.839972,-0.177795,-0.021918,-0.791680,0.616684,0.941954,0.645418,0.448268,-0.561464,0.331097,-0.501341,0.916868,0.432589,-0.074925,-0.787055,-0.761162,-0.422751,0.703336,0.815013,;][-0.504045,;-0.769534,;-0.289472,;-0.002231,;0.904303,;0.412220,;-0.391313,;-0.361804,;0.404710,;0.790707,;0.096580,;-0.445191,;-0.836870,;0.596877,;0.040365,;0.866490,;-0.869287,;0.173300,;-0.438081,;0.641066,;]
[0.681998,-0.842143,-0.178359,-0.021926,-0.788885,0.617828,0.941854,0.644249,0.449552,-0.559589,0.331329,-0.502811,0.915809,0.434073,-0.074821,-0.784241,-0.763943,-0.422424,0.702336,0.815518,;][-0.501334,;-0.770766,;-0.291530,;-0.002068,;0.903477,;0.413510,;-0.388236,;-0.362304,;0.405364,;0.788999,;0.094900,;-0.445355,;-0.834351,;0.598476,;0.041868,;0.866045,;-0.869877,;0.171200,;-0.436295,;0.643863,;]
[0.681464,-0.844551,-0.178979,-0.021933,-0.785802,0.619094,0.941738,0.642987,0.450958,-0.557507,0.331574,-0.504412,0.914602,0.435710,-0.074704,-0.781160,-0.766989,-0.422065,0.701223,0.816096,;][-0.498313,;-0.772075,;-0.293831,;-0.001882,;0.902656,;0.414902,;-0.384788,;-0.362949,;0.406056,;0.787140,;0.092985,;-0.445491,;-0.831568,;0.600240,;0.043564,;0.865657,;-0.870471,;0.168872,;-0.434353,;0.646981,;]
[0.680882,-0.847137,-0.179643,-0.021940,-0.782506,0.620453,0.941610,0.641665,0.452450,-0.555264,0.331824,-0.506103,0.913267,0.437461,-0.074575,-0.777890,-0.770224,-0.421685,0.700021,0.816737,;][-0.495043,;-0.773424,;-0.296332,;-0.001676,;0.901882,;0.416362,;-0.381035,;-0.363743,;0.406764,;0.785177,;0.090865,;-0.445585,;-0.828583,;0.602132,;0.045424,;0.865360,;-0.871045,;0.166364,;-0.432304,;0.650359,;]
[0.680248,-0.849912,-0.180353,-0.021947,-0.778992,0.621909,0.941468,0.640282,0.454033,-0.552850,0.332079,-0.507888,0.911791,0.439333,-0.074435,-0.774431,-0.773657,-0.421283,0.698726,0.817448,;][-0.491504,;-0.774810,;-0.299052,;-0.001448,;0.901173,;0.417889,;-0.376948,;-0.364709,;0.407488,;0.783108,;0.088517,;-0.445630,;-0.825384,;0.604163,;0.047465,;0.865174,;-0.871591,;0.163663,;-0.430149,;0.654020,;]
[0.673209,-0.876250,-0.186881,-0.021997,-0.747751,0.635663,0.939624,0.629306,0.468102,-0.529468,0.334049,-0.523177,0.894641,0.457053,-0.073182,-0.745039,-0.803824,-0.417423,0.685834,0.825899,;][-0.453538,;-0.781806,;-0.329218,;0.001433,;0.902258,;0.429084,;-0.331026,;-0.382735,;0.410824,;0.764623,;0.058856,;-0.440476,;-0.794010,;0.623630,;0.071697,;0.872273,;-0.869324,;0.135633,;-0.411888,;0.693268,;]
[0.673672,-0.874476,-0.186402,-0.022000,-0.749831,0.634716,0.939740,0.630056,0.467149,-0.531078,0.333961,-0.522156,0.895846,0.455844,-0.073309,-0.746970,-0.801794,-0.417644,0.686694,0.825287,;][-0.456166,;-0.781219,;-0.327069,;0.001227,;0.901863,;0.428266,;-0.334254,;-0.381328,;0.410538,;0.765722,;0.060968,;-0.440788,;-0.796083,;0.622188,;0.069970,;0.871476,;-0.869354,;0.137561,;-0.413024,;0.690506,;]
[0.672412,-0.879170,-0.187661,-0.021993,-0.744409,0.637220,0.939414,0.628129,0.469651,-0.526816,0.334196,-0.524822,0.892578,0.459052,-0.072985,-0.741963,-0.807106,-0.417048,0.684402,0.826959,;][-0.449008,;-0.782525,;-0.332955,;0.001802,;0.903149,;0.430310,;-0.325394,;-0.385366,;0.411157,;0.762815,;0.055071,;-0.439739,;-0.790538,;0.626023,;0.074750,;0.873865,;-0.868972,;0.132333,;-0.410073,;0.698018,;]
[0.671507,-0.882492,-0.188566,-0.021985,-0.740633,0.639000,0.939178,0.626789,0.471416,-0.523783,0.334342,-0.526688,0.890199,0.461337,-0.072743,-0.738497,-0.810835,-0.416639,0.682775,0.828192,;][-0.443777,;-0.783361,;-0.337308,;0.002234,;0.904361,;0.431719,;-0.318855,;-0.388510,;0.411544,;0.760835,;0.050646,;-0.438879,;-0.786604,;0.628820,;0.078315,;0.875877,;-0.868581,;0.128529,;-0.408066,;0.703526,;]
[0.670535,-0.885996,-0.189533,-0.021975,-0.736716,0.640886,0.938920,0.625403,0.473270,-0.520569,0.334482,-0.528634,0.887621,0.463763,-0.072478,-0.734924,-0.814735,-0.416215,0.681053,0.829546,;][-0.438061,;-0.784117,;-0.342121,;0.002720,;0.905962,;0.433152,;-0.311637,;-0.392154,;0.411881,;0.758817,;0.045679,;-0.437819,;-0.782434,;0.631857,;0.082291,;0.878347,;-0.867999,;0.124391,;-0.406032,;0.709559,;]
[0.669585,-0.889365,-0.190476,-0.021963,-0.733015,0.642707,0.938665,0.624093,0.475048,-0.517464,0.334601,-0.530485,0.885077,0.466113,-0.072212,-0.731567,-0.818454,-0.415817,0.679392,0.830902,;][-0.432347,;-0.784714,;-0.346994,;0.003220,;0.907851,;0.434475,;-0.304346,;-0.396012,;0.412131,;0.756954,;0.040576,;-0.436638,;-0.778407,;0.634876,;0.086353,;0.881097,;-0.867261,;0.120272,;-0.404168,;0.715607,;]
[0.668651,-0.892617,-0.191400,-0.021950,-0.729507,0.644474,0.938411,0.622850,0.476760,-0.514453,0.334701,-0.532253,0.882556,0.468401,-0.071944,-0.728401,-0.822014,-0.415441,0.677784,0.832266,;][-0.426590,;-0.785148,;-0.351971,;0.003740,;0.910049,;0.435694,;-0.296917,;-0.400122,;0.412291,;0.755239,;0.035286,;-0.435318,;-0.774503,;0.637903,;0.090539,;0.884154,;-0.866354,;0.116139,;-0.402466,;0.721721,;]
[0.667744,-0.895714,-0.192296,-0.021935,-0.726226,0.646165,0.938161,0.621685,0.478388,-0.511570,0.334783,-0.533922,0.880094,0.470601,-0.071678,-0.725456,-0.825380,-0.415090,0.676245,0.833621,;][-0.420838,;-0.785407,;-0.357018,;0.004275,;0.912545,;0.436795,;-0.289409,;-0.404458,;0.412356,;0.753693,;0.029845,;-0.433865,;-0.770767,;0.640913,;0.094820,;0.887499,;-0.865276,;0.112024,;-0.400950,;0.727850,;]
[0.666876,-0.898631,-0.193154,-0.021920,-0.723194,0.647767,0.937920,0.620604,0.479919,-0.508842,0.334847,-0.535478,0.877718,0.472695,-0.071417,-0.722746,-0.828525,-0.414768,0.674791,0.834951,;][-0.415126,;-0.785483,;-0.362107,;0.004824,;0.915327,;0.437764,;-0.281863,;-0.408998,;0.412322,;0.752331,;0.024279,;-0.432281,;-0.767233,;0.643887,;0.099177,;0.891115,;-0.864026,;0.107954,;-0.399636,;0.733958,;]
[0.666052,-0.901344,-0.193968,-0.021903,-0.720427,0.649265,0.937688,0.619613,0.481343,-0.506290,0.334895,-0.536913,0.875455,0.474665,-0.071163,-0.720285,-0.831429,-0.414475,0.673433,0.836242,;][-0.409492,;-0.785370,;-0.367212,;0.005384,;0.918378,;0.438594,;-0.274324,;-0.413718,;0.412185,;0.751166,;0.018616,;-0.430573,;-0.763932,;0.646806,;0.103586,;0.894980,;-0.862607,;0.103952,;-0.398537,;0.740008,;]
[0.665282,-0.903831,-0.194729,-0.021886,-0.717937,0.650647,0.937469,0.618717,0.482649,-0.503938,0.334928,-0.538217,0.873332,0.476494,-0.070921,-0.718079,-0.834073,-0.414213,0.672182,0.837478,;][-0.403974,;-0.785066,;-0.372300,;0.005951,;0.921673,;0.439277,;-0.266842,;-0.418585,;0.411946,;0.750206,;0.012892,;-0.428748,;-0.760895,;0.649653,;0.108022,;0.899062,;-0.861025,;0.100044,;-0.397660,;0.745958,;]
[0.664574,-0.906075,-0.195431,-0.021869,-0.715733,0.651902,0.937266,0.617918,0.483829,-0.501802,0.334949,-0.539385,0.871372,0.478166,-0.070694,-0.716133,-0.836442,-0.413982,0.671048,0.838642,;][-0.398610,;-0.784570,;-0.377341,;0.006522,;0.925181,;0.439807,;-0.259467,;-0.423564,;0.411604,;0.749456,;0.007142,;-0.426818,;-0.758145,;0.652406,;0.112455,;0.903327,;-0.859287,;0.096257,;-0.397013,;0.751768,;]
[0.663932,-0.908065,-0.196067,-0.021852,-0.713815,0.653022,0.937080,0.617219,0.484877,-0.499897,0.334959,-0.540413,0.869597,0.479671,-0.070484,-0.714447,-0.838528,-0.413781,0.670037,0.839720,;][-0.393437,;-0.783887,;-0.382300,;0.007093,;0.928868,;0.440183,;-0.252251,;-0.428617,;0.411162,;0.748916,;0.001406,;-0.424797,;-0.755700,;0.655049,;0.116858,;0.907735,;-0.857407,;0.092613,;-0.396594,;0.757398,;]
[0.663364,-0.909793,-0.196631,-0.021837,-0.712180,0.654002,0.936914,0.616617,0.485789,-0.498232,0.334960,-0.541300,0.868022,0.480997,-0.070294,-0.713014,-0.840328,-0.413610,0.669154,0.840699,;][-0.388489,;-0.783027,;-0.387146,;0.007660,;0.932694,;0.440404,;-0.245243,;-0.433700,;0.410626,;0.748582,;-0.004275,;-0.422700,;-0.753575,;0.657564,;0.121199,;0.912243,;-0.855400,;0.089136,;-0.396400,;0.762811,;]
[0.662897,-0.910906,-0.197053,-0.021825,-0.711219,0.654680,0.936753,0.616265,0.486411,-0.497071,0.334957,-0.541873,0.866849,0.481983,-0.070158,-0.712192,-0.841440,-0.413487,0.668547,0.841565,;][-0.365931,;-0.768988,;-0.412962,;0.011086,;0.960052,;0.434701,;-0.209557,;-0.466182,;0.402546,;0.752465,;-0.038041,;-0.405721,;-0.751172,;0.666992,;0.146154,;0.942741,;-0.836237,;0.073524,;-0.402760,;0.787312,;]
[0.662897,-0.910906,-0.197053,-0.021825,-0.711219,0.654680,0.936753,0.616265,0.486411,-0.497071,0.334957,-0.541873,0.866849,0.481983,-0.070158,-0.712192,-0.841440,-0.413487,0.668547,0.841565,;][-0.362606,;-0.766810,;-0.417036,;0.011631,;0.964583,;0.433797,;-0.204083,;-0.471385,;0.401299,;0.753446,;-0.043368,;-0.403057,;-0.751266,;0.668563,;0.150096,;0.947716,;-0.833269,;0.071194,;-0.404046,;0.791138,;]
[0.662941,-0.910803,-0.197009,-0.021826,-0.711306,0.654616,0.936767,0.616299,0.486353,-0.497181,0.334960,-0.541821,0.866961,0.481887,-0.070174,-0.712266,-0.841338,-0.413496,0.668605,0.841477,;][-0.360659,;-0.765376,;-0.419514,;0.011967,;0.967432,;0.433162,;-0.200800,;-0.474616,;0.400478,;0.754143,;-0.046651,;-0.401368,;-0.751478,;0.669476,;0.152517,;0.950824,;-0.831369,;0.069827,;-0.404942,;0.793400,;]
[0.663016,-0.910634,-0.196936,-0.021829,-0.711445,0.654511,0.936791,0.616355,0.486257,-0.497363,0.334966,-0.541736,0.867147,0.481726,-0.070201,-0.712385,-0.841171,-0.413512,0.668701,0.841325,;][-0.359108,;-0.764089,;-0.421568,;0.012251,;0.969866,;0.432560,;-0.198117,;-0.477351,;0.399741,;0.754797,;-0.049409,;-0.399905,;-0.751776,;0.670190,;0.154544,;0.953467,;-0.829707,;0.068735,;-0.405776,;0.795214,;]
[0.663110,-0.910429,-0.196844,-0.021833,-0.711614,0.654381,0.936823,0.616422,0.486138,-0.497589,0.334972,-0.541632,0.867378,0.481524,-0.070235,-0.712529,-0.840969,-0.413532,0.668819,0.841131,;][-0.357881,;-0.762946,;-0.423258,;0.012489,;0.971929,;0.431999,;-0.195943,;-0.479648,;0.399085,;0.755397,;-0.051711,;-0.398649,;-0.752120,;0.670740,;0.156231,;0.955697,;-0.828267,;0.067869,;-0.406536,;0.796656,;]
[0.663211,-0.910216,-0.196745,-0.021837,-0.711786,0.654244,0.936857,0.616491,0.486013,-0.497826,0.334980,-0.541524,0.867620,0.481309,-0.070271,-0.712676,-0.840760,-0.413553,0.668944,0.840921,;][-0.356956,;-0.761979,;-0.424590,;0.012679,;0.973602,;0.431505,;-0.194256,;-0.481495,;0.398530,;0.755918,;-0.053551,;-0.397617,;-0.752469,;0.671144,;0.157574,;0.957498,;-0.827073,;0.067214,;-0.407194,;0.797751,;]
[0.663306,-0.910025,-0.196653,-0.021841,-0.711941,0.654119,0.936890,0.616553,0.485899,-0.498045,0.334987,-0.541426,0.867843,0.481110,-0.070304,-0.712807,-0.840572,-0.413572,0.669057,0.840721,;][-0.356307,;-0.761218,;-0.425570,;0.012822,;0.974865,;0.431103,;-0.193039,;-0.482880,;0.398092,;0.756336,;-0.054923,;-0.396827,;-0.752783,;0.671417,;0.158573,;0.958852,;-0.826153,;0.066752,;-0.407721,;0.798522,;]
[0.663382,-0.909879,-0.196581,-0.021844,-0.712058,0.654023,0.936916,0.616601,0.485810,-0.498214,0.334993,-0.541350,0.868015,0.480953,-0.070331,-0.712906,-0.840429,-0.413587,0.669145,0.840561,;][-0.355909,;-0.760695,;-0.426202,;0.012916,;0.975703,;0.430818,;-0.192268,;-0.483792,;0.397790,;0.756629,;-0.055822,;-0.396296,;-0.753022,;0.671578,;0.159225,;0.959747,;-0.825530,;0.066467,;-0.408089,;0.798997,;]
[0.663424,-0.909800,-0.196540,-0.021846,-0.712121,0.653970,0.936932,0.616626,0.485762,-0.498307,0.334996,-0.541309,0.868109,0.480865,-0.070345,-0.712959,-0.840353,-0.413595,0.669193,0.840471,;][-0.355731,;-0.760433,;-0.426500,;0.012960,;0.976108,;0.430671,;-0.191911,;-0.484230,;0.397638,;0.756777,;-0.056252,;-0.396035,;-0.753151,;0.671646,;0.159536,;0.960178,;-0.825223,;0.066339,;-0.408275,;0.799210,;]
[0.663421,-0.909806,-0.196543,-0.021846,-0.712116,0.653974,0.936931,0.616624,0.485765,-0.498300,0.334996,-0.541312,0.868102,0.480872,-0.070344,-0.712955,-0.840358,-0.413595,0.669189,0.840478,;][-0.355742,;-0.760451,;-0.426481,;0.012957,;0.976081,;0.430681,;-0.191934,;-0.484201,;0.397649,;0.756766,;-0.056223,;-0.396053,;-0.753142,;0.671642,;0.159516,;0.960149,;-0.825244,;0.066347,;-0.408262,;0.799197,;]
[0.663359,-0.909910,-0.196601,-0.021843,-0.712034,0.654047,0.936907,0.616591,0.485833,-0.498171,0.334991,-0.541368,0.867973,0.480996,-0.070324,-0.712886,-0.840460,-0.413583,0.669124,0.840611,;][-0.355912,;-0.760767,;-0.426159,;0.012907,;0.975622,;0.430867,;-0.192301,;-0.483710,;0.397834,;0.756585,;-0.055746,;-0.396356,;-0.752966,;0.671587,;0.159172,;0.959664,;-0.825605,;0.066471,;-0.408033,;0.798993,;]
[0.663229,-0.910124,-0.196724,-0.021838,-0.711866,0.654198,0.936857,0.616522,0.485973,-0.497903,0.334983,-0.541484,0.867707,0.481257,-0.070281,-0.712745,-0.840667,-0.413558,0.668988,0.840895,;][-0.356210,;-0.761392,;-0.425558,;0.012811,;0.974743,;0.431243,;-0.192970,;-0.482773,;0.398201,;0.756223,;-0.054837,;-0.396945,;-0.752602,;0.671502,;0.158521,;0.958736,;-0.826308,;0.066690,;-0.407578,;0.798639,;]
[0.663021,-0.910451,-0.196919,-0.021830,-0.711610,0.654434,0.936773,0.616417,0.486193,-0.497483,0.334969,-0.541665,0.867293,0.481672,-0.070213,-0.712531,-0.840983,-0.413518,0.668777,0.841351,;][-0.356605,;-0.762326,;-0.424700,;0.012672,;0.973462,;0.431816,;-0.193897,;-0.481413,;0.398756,;0.755680,;-0.053522,;-0.397816,;-0.752037,;0.671408,;0.157581,;0.957387,;-0.827351,;0.066984,;-0.406892,;0.798173,;]
[0.662725,-0.910894,-0.197196,-0.021820,-0.711264,0.654761,0.936651,0.616275,0.486499,-0.496900,0.334951,-0.541914,0.866723,0.482255,-0.070119,-0.712241,-0.841412,-0.413461,0.668487,0.842003,;][-0.357069,;-0.763577,;-0.423608,;0.012492,;0.971791,;0.432598,;-0.195042,;-0.479645,;0.399502,;0.754950,;-0.051820,;-0.398967,;-0.751257,;0.671325,;0.156368,;0.955631,;-0.828732,;0.067332,;-0.405970,;0.797633,;]
[0.656671,-0.917508,-0.202836,-0.021609,-0.706066,0.660389,0.933743,0.614096,0.491983,-0.486457,0.334650,-0.546138,0.857393,0.493616,-0.068319,-0.707946,-0.847819,-0.412320,0.663612,0.855538,;][-0.358761,;-0.782414,;-0.411065,;0.010124,;0.949533,;0.445645,;-0.204501,;-0.456632,;0.411326,;0.743318,;-0.030007,;-0.415490,;-0.737280,;0.673361,;0.141076,;0.932573,;-0.848590,;0.069091,;-0.391384,;0.796148,;]
[0.656205,-0.917994,-0.203263,-0.021595,-0.705685,0.660819,0.933505,0.613941,0.492405,-0.485664,0.334637,-0.546464,0.856698,0.494482,-0.068194,-0.707632,-0.848290,-0.412230,0.663256,0.856576,;][-0.358867,;-0.783828,;-0.410182,;0.009952,;0.947906,;0.446645,;-0.205147,;-0.454950,;0.412230,;0.742482,;-0.028414,;-0.416725,;-0.736252,;0.673589,;0.139965,;0.930889,;-0.850071,;0.069197,;-0.390308,;0.796154,;]
[0.654976,-0.919218,-0.204390,-0.021562,-0.704721,0.661923,0.932866,0.613550,0.493497,-0.483610,0.334605,-0.547302,0.854924,0.496749,-0.067870,-0.706842,-0.849478,-0.411993,0.662346,0.859302,;][-0.359032,;-0.787441,;-0.408002,;0.009516,;0.943799,;0.449231,;-0.206628,;-0.450712,;0.414562,;0.740333,;-0.024404,;-0.419873,;-0.733582,;0.674250,;0.137178,;0.926641,;-0.853841,;0.069396,;-0.387539,;0.796320,;]
[0.653765,-0.920370,-0.205502,-0.021530,-0.703810,0.662987,0.932222,0.613181,0.494559,-0.481614,0.334578,-0.548112,0.853232,0.498969,-0.067557,-0.706096,-0.850597,-0.411759,0.661477,0.861976,;][-0.359098,;-0.790904,;-0.405987,;0.009103,;0.939912,;0.451741,;-0.207895,;-0.446708,;0.416819,;0.738270,;-0.020620,;-0.422884,;-0.730996,;0.674968,;0.134554,;0.922626,;-0.857438,;0.069523,;-0.384876,;0.796634,;]
[0.652475,-0.921541,-0.206691,-0.021497,-0.702879,0.664097,0.931521,0.612805,0.495675,-0.479518,0.334555,-0.548958,0.851486,0.501318,-0.067232,-0.705336,-0.851737,-0.411509,0.660579,0.864808,;][-0.359075,;-0.794496,;-0.403970,;0.008680,;0.935925,;0.454376,;-0.209055,;-0.442608,;0.419183,;0.736125,;-0.016751,;-0.426003,;-0.728283,;0.675796,;0.131878,;0.918514,;-0.861157,;0.069590,;-0.382102,;0.797114,;]
[0.651130,-0.922707,-0.207934,-0.021465,-0.701947,0.665229,0.930775,0.612430,0.496824,-0.477361,0.334535,-0.549823,0.849724,0.503752,-0.066899,-0.704576,-0.852875,-0.411249,0.659671,0.867740,;][-0.358963,;-0.798150,;-0.401990,;0.008254,;0.931910,;0.457087,;-0.210084,;-0.438488,;0.421613,;0.733937,;-0.012865,;-0.429173,;-0.725494,;0.676721,;0.129196,;0.914378,;-0.864927,;0.069595,;-0.379267,;0.797754,;]
[0.649738,-0.923860,-0.209226,-0.021433,-0.701019,0.666376,0.929989,0.612057,0.497998,-0.475156,0.334520,-0.550702,0.847958,0.506254,-0.066563,-0.703822,-0.854001,-0.410978,0.658760,0.870747,;][-0.358764,;-0.801844,;-0.400056,;0.007827,;0.927891,;0.459859,;-0.210976,;-0.434369,;0.424093,;0.731720,;-0.008983,;-0.432377,;-0.722647,;0.677738,;0.126524,;0.910242,;-0.868726,;0.069539,;-0.376389,;0.798549,;]
[0.648313,-0.924987,-0.210557,-0.021402,-0.700106,0.667526,0.929170,0.611691,0.499185,-0.472923,0.334509,-0.551587,0.846206,0.508803,-0.066225,-0.703080,-0.855105,-0.410701,0.657855,0.873799,;][-0.358480,;-0.805546,;-0.398183,;0.007403,;0.923898,;0.462669,;-0.211725,;-0.430282,;0.426604,;0.729490,;-0.005135,;-0.435589,;-0.719765,;0.678838,;0.123881,;0.906138,;-0.872524,;0.069422,;-0.373490,;0.799491,;]
[0.646862,-0.926084,-0.211922,-0.021372,-0.699211,0.668674,0.928323,0.611334,0.500381,-0.470674,0.334503,-0.552471,0.844478,0.511382,-0.065887,-0.702355,-0.856182,-0.410419,0.656960,0.876872,;][-0.358117,;-0.809241,;-0.396377,;0.006982,;0.919945,;0.465502,;-0.212333,;-0.426242,;0.429134,;0.727256,;-0.001334,;-0.438795,;-0.716863,;0.680015,;0.121275,;0.902079,;-0.876304,;0.069249,;-0.370583,;0.800569,;]
[0.645397,-0.927142,-0.213309,-0.021344,-0.698340,0.669808,0.927455,0.610987,0.501574,-0.468425,0.334501,-0.553350,0.842788,0.513970,-0.065552,-0.701652,-0.857224,-0.410133,0.656083,0.879936,;][-0.357680,;-0.812900,;-0.394648,;0.006568,;0.916058,;0.468337,;-0.212800,;-0.422276,;0.431666,;0.725036,;0.002397,;-0.441974,;-0.713963,;0.681256,;0.118723,;0.898092,;-0.880040,;0.069021,;-0.367690,;0.801770,;]
[0.643930,-0.928154,-0.214710,-0.021317,-0.697501,0.670920,0.926576,0.610653,0.502755,-0.466195,0.334504,-0.554214,0.841149,0.516546,-0.065223,-0.700974,-0.858223,-0.409848,0.655230,0.882961,;][-0.357177,;-0.816499,;-0.393005,;0.006163,;0.912262,;0.471152,;-0.213129,;-0.418406,;0.434180,;0.722844,;0.006035,;-0.445103,;-0.711085,;0.682550,;0.116240,;0.894201,;-0.883706,;0.068744,;-0.364831,;0.803076,;]
[0.642469,-0.929118,-0.216119,-0.021291,-0.696694,0.672006,0.925690,0.610333,0.503919,-0.463991,0.334511,-0.555061,0.839567,0.519096,-0.064901,-0.700325,-0.859177,-0.409563,0.654405,0.885930,;][-0.356613,;-0.820026,;-0.391448,;0.005768,;0.908564,;0.473937,;-0.213327,;-0.414641,;0.436667,;0.720685,;0.009573,;-0.448174,;-0.708241,;0.683888,;0.113830,;0.890416,;-0.887292,;0.068421,;-0.362014,;0.804474,;]
[0.641027,-0.930028,-0.217525,-0.021268,-0.695926,0.673056,0.924807,0.610029,0.505056,-0.461832,0.334522,-0.555884,0.838053,0.521600,-0.064588,-0.699707,-0.860080,-0.409282,0.653613,0.888814,;][-0.355998,;-0.823456,;-0.389985,;0.005385,;0.904988,;0.476671,;-0.213400,;-0.411004,;0.439110,;0.718577,;0.012990,;-0.451165,;-0.705453,;0.685255,;0.111507,;0.886758,;-0.890774,;0.068058,;-0.359261,;0.805945,;]
[0.639613,-0.930881,-0.218918,-0.021246,-0.695198,0.674065,0.923934,0.609742,0.506159,-0.459731,0.334536,-0.556677,0.836615,0.524038,-0.064286,-0.699124,-0.860930,-0.409006,0.652858,0.891592,;][-0.355340,;-0.826770,;-0.388619,;0.005017,;0.901550,;0.479335,;-0.213360,;-0.407512,;0.441492,;0.716529,;0.016269,;-0.454060,;-0.702737,;0.686638,;0.109281,;0.883245,;-0.894132,;0.067661,;-0.356586,;0.807467,;]
[0.627691,-0.936145,-0.231964,-0.021062,-0.690296,0.681347,0.916405,0.607754,0.514750,-0.442835,0.334678,-0.562575,0.826886,0.543981,-0.061643,-0.695221,-0.866306,-0.406593,0.647412,0.912134,;][-0.346520,;-0.852743,;-0.379820,;0.002134,;0.875188,;0.501264,;-0.207060,;-0.380919,;0.461169,;0.699303,;0.041236,;-0.477065,;-0.680144,;0.699934,;0.092445,;0.856462,;-0.920254,;0.062064,;-0.334699,;0.823463,;]
[0.631350,-0.934567,-0.227878,-0.021086,-0.691755,0.679092,0.918683,0.608320,0.512066,-0.448139,0.334567,-0.560725,0.829808,0.537958,-0.062348,-0.696376,-0.864691,-0.407286,0.648992,0.906094,;][-0.349190,;-0.844730,;-0.382237,;0.003019,;0.883275,;0.494419,;-0.209112,;-0.389078,;0.454989,;0.704463,;0.033569,;-0.469930,;-0.687085,;0.695469,;0.097580,;0.864677,;-0.912202,;0.063849,;-0.341437,;0.818147,;]
[0.628567,-0.935708,-0.231036,-0.021059,-0.690677,0.680753,0.916946,0.607893,0.514068,-0.444159,0.334635,-0.562092,0.827659,0.542532,-0.061778,-0.695522,-0.865865,-0.406742,0.647800,0.910607,;][-0.347019,;-0.850766,;-0.380420,;0.002351,;0.877188,;0.499596,;-0.207356,;-0.382943,;0.459660,;0.700485,;0.039334,;-0.475311,;-0.681802,;0.698842,;0.093715,;0.858499,;-0.918263,;0.062416,;-0.336320,;0.822205,;]
[0.628704,-0.935654,-0.230878,-0.021061,-0.690729,0.680673,0.917031,0.607913,0.513970,-0.444355,0.334631,-0.562025,0.827761,0.542309,-0.061805,-0.695563,-0.865809,-0.406768,0.647857,0.910391,;][-0.347129,;-0.850470,;-0.380504,;0.002384,;0.877486,;0.499340,;-0.207449,;-0.383243,;0.459429,;0.700681,;0.039052,;-0.475046,;-0.682062,;0.698671,;0.093903,;0.858801,;-0.917966,;0.062490,;-0.336572,;0.821999,;]
[0.627670,-0.936046,-0.232098,-0.021052,-0.690350,0.681268,0.916392,0.607763,0.514704,-0.442876,0.334660,-0.562521,0.827008,0.543989,-0.061596,-0.695264,-0.866214,-0.406566,0.647435,0.911982,;][-0.346259,;-0.852699,;-0.379888,;0.002136,;0.875245,;0.501276,;-0.206681,;-0.380988,;0.461181,;0.699194,;0.041172,;-0.477045,;-0.680089,;0.699983,;0.092485,;0.856530,;-0.920203,;0.061907,;-0.334664,;0.823582,;]
[0.627302,-0.936179,-0.232540,-0.021050,-0.690219,0.681476,0.916166,0.607712,0.514962,-0.442351,0.334671,-0.562695,0.826748,0.544582,-0.061522,-0.695161,-0.866353,-0.406494,0.647288,0.912532,;][-0.345938,;-0.853489,;-0.379679,;0.002048,;0.874453,;0.501966,;-0.206388,;-0.380190,;0.461807,;0.698663,;0.041922,;-0.477755,;-0.679385,;0.700459,;0.091984,;0.855726,;-0.920995,;0.061691,;-0.333984,;0.824156,;]
[0.626753,-0.936370,-0.233214,-0.021046,-0.690029,0.681780,0.915832,0.607636,0.515345,-0.441568,0.334688,-0.562951,0.826372,0.545464,-0.061410,-0.695011,-0.866552,-0.406387,0.647073,0.913332,;][-0.345440,;-0.854668,;-0.379378,;0.001916,;0.873272,;0.502999,;-0.205920,;-0.379003,;0.462745,;0.697864,;0.043039,;-0.478817,;-0.678331,;0.701181,;0.091238,;0.854531,;-0.922176,;0.061354,;-0.332966,;0.825030,;]
[0.626424,-0.936480,-0.233627,-0.021044,-0.689918,0.681959,0.915632,0.607592,0.515573,-0.441098,0.334698,-0.563103,0.826152,0.545990,-0.061342,-0.694924,-0.866668,-0.406322,0.646947,0.913800,;][-0.345130,;-0.855374,;-0.379205,;0.001837,;0.872565,;0.503622,;-0.205622,;-0.378292,;0.463312,;0.697382,;0.043708,;-0.479455,;-0.677696,;0.701623,;0.090791,;0.853815,;-0.922884,;0.061144,;-0.332352,;0.825564,;]
[0.626118,-0.936578,-0.234019,-0.021042,-0.689817,0.682122,0.915449,0.607552,0.515784,-0.440662,0.334707,-0.563242,0.825954,0.546476,-0.061278,-0.694845,-0.866771,-0.406261,0.646832,0.914222,;][-0.344832,;-0.856030,;-0.379051,;0.001764,;0.871910,;0.504204,;-0.205328,;-0.377634,;0.463841,;0.696930,;0.044328,;-0.480049,;-0.677103,;0.702040,;0.090378,;0.853152,;-0.923540,;0.060941,;-0.331780,;0.826068,;]
[0.625928,-0.936637,-0.234267,-0.021041,-0.689756,0.682221,0.915336,0.607527,0.515913,-0.440391,0.334713,-0.563327,0.825835,0.546777,-0.061239,-0.694797,-0.866833,-0.406223,0.646761,0.914478,;][-0.344641,;-0.856437,;-0.378959,;0.001718,;0.871502,;0.504566,;-0.205136,;-0.377225,;0.464172,;0.696647,;0.044713,;-0.480419,;-0.676732,;0.702304,;0.090121,;0.852741,;-0.923948,;0.060810,;-0.331423,;0.826387,;]
[0.625805,-0.936673,-0.234433,-0.021040,-0.689718,0.682284,0.915264,0.607512,0.515997,-0.440215,0.334717,-0.563382,0.825759,0.546972,-0.061212,-0.694767,-0.866872,-0.406198,0.646716,0.914639,;][-0.344512,;-0.856703,;-0.378901,;0.001688,;0.871237,;0.504804,;-0.205004,;-0.376959,;0.464389,;0.696460,;0.044964,;-0.480660,;-0.676490,;0.702478,;0.089954,;0.852473,;-0.924214,;0.060722,;-0.331189,;0.826597,;]
[0.625768,-0.936684,-0.234483,-0.021040,-0.689707,0.682303,0.915242,0.607507,0.516021,-0.440163,0.334718,-0.563398,0.825738,0.547029,-0.061204,-0.694758,-0.866883,-0.406190,0.646703,0.914686,;][-0.344472,;-0.856782,;-0.378885,;0.001679,;0.871159,;0.504875,;-0.204964,;-0.376880,;0.464454,;0.696405,;0.045038,;-0.480732,;-0.676418,;0.702531,;0.089904,;0.852393,;-0.924293,;0.060695,;-0.331119,;0.826661,;]
[0.625801,-0.936675,-0.234437,-0.021040,-0.689717,0.682286,0.915261,0.607511,0.515999,-0.440210,0.334717,-0.563383,0.825757,0.546978,-0.061212,-0.694765,-0.866873,-0.406197,0.646715,0.914645,;][-0.344509,;-0.856711,;-0.378899,;0.001687,;0.871230,;0.504811,;-0.205002,;-0.376951,;0.464395,;0.696455,;0.044971,;-0.480667,;-0.676483,;0.702483,;0.089949,;0.852465,;-0.924222,;0.060720,;-0.331182,;0.826603,;]
[0.625907,-0.936647,-0.234285,-0.021041,-0.689747,0.682235,0.915321,0.607524,0.515929,-0.440361,0.334714,-0.563338,0.825816,0.546813,-0.061235,-0.694790,-0.866843,-0.406219,0.646752,0.914517,;][-0.344631,;-0.856481,;-0.378943,;0.001713,;0.871458,;0.504603,;-0.205131,;-0.377180,;0.464205,;0.696621,;0.044755,;-0.480457,;-0.676695,;0.702325,;0.090093,;0.852696,;-0.923992,;0.060804,;-0.331387,;0.826413,;]
[0.629238,-0.935970,-0.228551,-0.021067,-0.690586,0.680801,0.917047,0.607880,0.513790,-0.445196,0.334606,-0.562014,0.827371,0.541669,-0.062102,-0.695443,-0.866092,-0.406980,0.647794,0.911188,;][-0.349404,;-0.848858,;-0.379963,;0.002609,;0.879036,;0.497536,;-0.210402,;-0.384763,;0.457654,;0.702420,;0.037569,;-0.473365,;-0.683914,;0.696659,;0.094883,;0.860325,;-0.916376,;0.064195,;-0.338368,;0.819689,;]
[0.627906,-0.936229,-0.230899,-0.021050,-0.690256,0.681360,0.916356,0.607737,0.514636,-0.443280,0.334642,-0.562533,0.826764,0.543741,-0.061731,-0.695186,-0.866381,-0.406656,0.647377,0.912488,;][-0.347427,;-0.851929,;-0.379532,;0.002246,;0.875983,;0.500390,;-0.208223,;-0.381709,;0.460300,;0.700050,;0.040465,;-0.476227,;-0.680996,;0.698946,;0.092948,;0.857252,;-0.919444,;0.062792,;-0.335545,;0.822412,;]
[0.629565,-0.935916,-0.227886,-0.021068,-0.690659,0.680671,0.917197,0.607911,0.513581,-0.445688,0.334593,-0.561889,0.827501,0.541169,-0.062196,-0.695500,-0.866030,-0.407057,0.647887,0.910913,;][-0.349959,;-0.848056,;-0.380022,;0.002706,;0.879833,;0.496779,;-0.211025,;-0.385560,;0.456946,;0.703052,;0.036811,;-0.472610,;-0.684685,;0.696023,;0.095388,;0.861126,;-0.915574,;0.064599,;-0.339116,;0.818950,;]
[0.629341,-0.935957,-0.228303,-0.021065,-0.690606,0.680762,0.917084,0.607888,0.513723,-0.445364,0.334599,-0.561974,0.827404,0.541517,-0.062131,-0.695459,-0.866076,-0.407000,0.647819,0.911120,;][-0.349606,;-0.848584,;-0.379955,;0.002643,;0.879309,;0.497272,;-0.210635,;-0.385035,;0.457404,;0.702639,;0.037309,;-0.473103,;-0.684181,;0.696423,;0.095055,;0.860598,;-0.916101,;0.064347,;-0.338628,;0.819424,;]
[0.630367,-0.935777,-0.226331,-0.021079,-0.690847,0.680350,0.917590,0.607994,0.513075,-0.446859,0.334571,-0.561584,0.827839,0.539920,-0.062439,-0.695646,-0.865872,-0.407262,0.648129,0.910194,;][-0.351271,;-0.846130,;-0.380243,;0.002936,;0.881747,;0.494973,;-0.212481,;-0.387473,;0.455263,;0.704571,;0.034993,;-0.470804,;-0.686529,;0.694543,;0.096604,;0.863050,;-0.913651,;0.065543,;-0.340904,;0.817205,;]
[0.630590,-0.935739,-0.225892,-0.021082,-0.690898,0.680262,0.917699,0.608017,0.512936,-0.447182,0.334565,-0.561500,0.827931,0.539573,-0.062509,-0.695686,-0.865829,-0.407320,0.648195,0.909999,;][-0.351642,;-0.845593,;-0.380304,;0.003001,;0.882281,;0.494468,;-0.212892,;-0.388007,;0.454792,;0.704998,;0.034485,;-0.470299,;-0.687045,;0.694128,;0.096944,;0.863587,;-0.913113,;0.065811,;-0.341404,;0.816716,;]
[0.631362,-0.935613,-0.224319,-0.021095,-0.691074,0.679962,0.918069,0.608095,0.512451,-0.448313,0.334545,-0.561211,0.828242,0.538365,-0.062757,-0.695822,-0.865684,-0.407527,0.648424,0.909337,;][-0.352973,;-0.843697,;-0.380509,;0.003230,;0.884165,;0.492684,;-0.214368,;-0.389891,;0.453126,;0.706514,;0.032694,;-0.468517,;-0.688868,;0.692653,;0.098144,;0.865481,;-0.911220,;0.066774,;-0.343173,;0.814983,;]
[0.631767,-0.935549,-0.223469,-0.021102,-0.691164,0.679807,0.918261,0.608136,0.512198,-0.448907,0.334535,-0.561060,0.828402,0.537729,-0.062893,-0.695893,-0.865611,-0.407638,0.648544,0.908998,;][-0.353692,;-0.842688,;-0.380615,;0.003353,;0.885168,;0.491732,;-0.215165,;-0.390893,;0.452235,;0.707327,;0.031740,;-0.467566,;-0.689840,;0.691862,;0.098784,;0.866489,;-0.910212,;0.067297,;-0.344117,;0.814056,;]
[0.632423,-0.935448,-0.222050,-0.021114,-0.691309,0.679559,0.918566,0.608202,0.511788,-0.449874,0.334519,-0.560818,0.828656,0.536696,-0.063120,-0.696005,-0.865495,-0.407823,0.648736,0.908463,;][-0.354893,;-0.841029,;-0.380780,;0.003556,;0.886817,;0.490162,;-0.216496,;-0.392541,;0.450766,;0.708673,;0.030170,;-0.466000,;-0.691442,;0.690552,;0.099838,;0.868145,;-0.908555,;0.068174,;-0.345673,;0.812524,;]
[0.632900,-0.935378,-0.220986,-0.021124,-0.691413,0.679382,0.918785,0.608249,0.511490,-0.450579,0.334508,-0.560644,0.828836,0.535942,-0.063290,-0.696086,-0.865413,-0.407961,0.648874,0.908084,;][-0.355793,;-0.839804,;-0.380897,;0.003706,;0.888034,;0.489002,;-0.217491,;-0.393757,;0.449678,;0.709673,;0.029011,;-0.464842,;-0.692626,;0.689579,;0.100617,;0.869368,;-0.907332,;0.068833,;-0.346825,;0.811388,;]
[0.633492,-0.935293,-0.219624,-0.021137,-0.691539,0.679164,0.919053,0.608307,0.511121,-0.451457,0.334494,-0.560428,0.829054,0.535003,-0.063510,-0.696184,-0.865314,-0.408137,0.649045,0.907625,;][-0.356943,;-0.838259,;-0.381037,;0.003896,;0.889570,;0.487534,;-0.218763,;-0.395292,;0.448301,;0.710943,;0.027547,;-0.463379,;-0.694123,;0.688343,;0.101601,;0.870910,;-0.905788,;0.069679,;-0.348281,;0.809949,;]
[0.633987,-0.935224,-0.218449,-0.021149,-0.691644,0.678985,0.919273,0.608356,0.510813,-0.452194,0.334484,-0.560250,0.829233,0.534214,-0.063700,-0.696265,-0.865233,-0.408288,0.649186,0.907250,;][-0.357933,;-0.836946,;-0.381152,;0.004059,;0.890876,;0.486284,;-0.219858,;-0.396597,;0.447126,;0.712030,;0.026302,;-0.462133,;-0.695398,;0.687286,;0.102440,;0.872221,;-0.904476,;0.070411,;-0.349522,;0.808721,;]
[0.634533,-0.935151,-0.217112,-0.021163,-0.691758,0.678790,0.919512,0.608409,0.510473,-0.453011,0.334472,-0.560054,0.829427,0.533340,-0.063918,-0.696354,-0.865147,-0.408459,0.649342,0.906848,;][-0.359058,;-0.835472,;-0.381274,;0.004243,;0.892341,;0.484879,;-0.221100,;-0.398061,;0.445804,;0.713256,;0.024904,;-0.460733,;-0.696831,;0.686091,;0.103382,;0.873693,;-0.903004,;0.071246,;-0.350918,;0.807338,;]
[0.635018,-0.935087,-0.215883,-0.021177,-0.691857,0.678619,0.919722,0.608456,0.510171,-0.453741,0.334462,-0.559880,0.829595,0.532559,-0.064119,-0.696431,-0.865072,-0.408615,0.649479,0.906498,;][-0.360091,;-0.834136,;-0.381381,;0.004410,;0.893669,;0.483603,;-0.222237,;-0.399387,;0.444602,;0.714375,;0.023636,;-0.459462,;-0.698131,;0.685003,;0.104238,;0.875026,;-0.901670,;0.072015,;-0.352185,;0.806079,;]
[0.639821,-0.934575,-0.200436,-0.021353,-0.692767,0.677039,0.921533,0.608903,0.507127,-0.461355,0.334363,-0.558191,0.831042,0.524589,-0.066602,-0.697135,-0.864446,-0.410375,0.650770,0.903564,;][-0.372702,;-0.818857,;-0.381871,;0.006391,;0.908871,;0.468840,;-0.235999,;-0.414569,;0.430566,;0.727593,;0.009059,;-0.444781,;-0.713128,;0.672002,;0.114126,;0.890268,;-0.886406,;0.081721,;-0.366869,;0.791391,;]
[0.636663,-0.934895,-0.210819,-0.021181,-0.692174,0.678037,0.920318,0.608604,0.509086,-0.456462,0.334388,-0.559265,0.830106,0.529918,-0.064792,-0.696676,-0.864839,-0.409061,0.649907,0.905428,;][-0.364190,;-0.829032,;-0.381137,;0.005060,;0.898746,;0.478681,;-0.226766,;-0.404457,;0.439922,;0.718694,;0.018774,;-0.454566,;-0.703129,;0.680637,;0.107486,;0.880117,;-0.896571,;0.075144,;-0.357071,;0.801187,;]
[0.639771,-0.934583,-0.200135,-0.021321,-0.692751,0.677041,0.921460,0.608892,0.507115,-0.461422,0.334336,-0.558184,0.831009,0.524685,-0.066550,-0.697122,-0.864454,-0.410286,0.650739,0.903618,;][-0.372860,;-0.818708,;-0.381482,;0.006412,;0.909020,;0.468680,;-0.236181,;-0.414718,;0.430394,;0.727720,;0.008910,;-0.444623,;-0.713282,;0.671780,;0.114199,;0.890416,;-0.886257,;0.081872,;-0.367024,;0.791221,;]
[0.637857,-0.934767,-0.206893,-0.021209,-0.692399,0.677636,0.920752,0.608713,0.508312,-0.458406,0.334351,-0.558835,0.830462,0.527949,-0.065379,-0.696850,-0.864683,-0.409459,0.650222,0.904698,;][-0.367375,;-0.825171,;-0.381097,;0.005559,;0.902587,;0.474948,;-0.230251,;-0.408294,;0.436368,;0.722024,;0.015089,;-0.450853,;-0.706920,;0.677325,;0.109969,;0.883968,;-0.892714,;0.077597,;-0.360783,;0.797470,;]
[0.639947,-0.934569,-0.199194,-0.021319,-0.692780,0.676982,0.921497,0.608906,0.506983,-0.461774,0.334322,-0.558114,0.831048,0.524379,-0.066664,-0.697144,-0.864436,-0.410338,0.650778,0.903538,;][-0.373571,;-0.817905,;-0.381326,;0.006520,;0.909820,;0.467892,;-0.236950,;-0.415517,;0.429631,;0.728435,;0.008137,;-0.443839,;-0.714078,;0.671040,;0.114717,;0.891218,;-0.885454,;0.082448,;-0.367808,;0.790429,;]
[0.638763,-0.934677,-0.203688,-0.021243,-0.692566,0.677344,0.921075,0.608796,0.507730,-0.459878,0.334331,-0.558516,0.830722,0.526423,-0.065887,-0.696979,-0.864571,-0.409804,0.650461,0.904176,;][-0.369963,;-0.822100,;-0.381120,;0.005961,;0.905643,;0.471970,;-0.233062,;-0.411346,;0.433528,;0.724710,;0.012154,;-0.447893,;-0.709941,;0.674674,;0.111962,;0.887032,;-0.889646,;0.079610,;-0.363746,;0.794501,;]
[0.640221,-0.934546,-0.197927,-0.021332,-0.692826,0.676897,0.921578,0.608931,0.506798,-0.462254,0.334314,-0.558016,0.831116,0.523898,-0.066859,-0.697180,-0.864407,-0.410453,0.650847,0.903404,;][-0.374554,;-0.816789,;-0.381269,;0.006671,;0.910931,;0.466801,;-0.238005,;-0.416627,;0.428582,;0.729435,;0.007065,;-0.442755,;-0.715182,;0.670042,;0.115448,;0.892331,;-0.884340,;0.083236,;-0.368895,;0.789336,;]
[0.639474,-0.934611,-0.200974,-0.021280,-0.692694,0.677122,0.921322,0.608861,0.507273,-0.461039,0.334319,-0.558269,0.830918,0.525203,-0.066332,-0.697078,-0.864489,-0.410102,0.650649,0.903789,;][-0.372135,;-0.819567,;-0.381158,;0.006297,;0.908165,;0.469508,;-0.235408,;-0.413864,;0.431174,;0.726951,;0.009729,;-0.445445,;-0.712438,;0.672471,;0.113616,;0.889559,;-0.887115,;0.081316,;-0.366198,;0.792042,;]
[0.640524,-0.934522,-0.196513,-0.021352,-0.692878,0.676806,0.921673,0.608958,0.506598,-0.462775,0.334309,-0.557910,0.831192,0.523358,-0.067090,-0.697220,-0.864376,-0.410595,0.650925,0.903257,;][-0.375652,;-0.815549,;-0.381252,;0.006841,;0.912167,;0.465588,;-0.239180,;-0.417861,;0.427416,;0.730553,;0.005873,;-0.441549,;-0.716409,;0.668938,;0.116266,;0.893568,;-0.883100,;0.084119,;-0.370103,;0.788122,;]
[0.640044,-0.934561,-0.198622,-0.021315,-0.692795,0.676948,0.921514,0.608914,0.506906,-0.461981,0.334312,-0.558073,0.831069,0.524209,-0.066726,-0.697156,-0.864426,-0.410359,0.650799,0.903494,;][-0.373997,;-0.817428,;-0.381193,;0.006585,;0.910295,;0.467422,;-0.237409,;-0.415992,;0.429176,;0.728861,;0.007677,;-0.443372,;-0.714551,;0.670595,;0.115022,;0.891694,;-0.884978,;0.082794,;-0.368275,;0.789957,;]
[0.640823,-0.934499,-0.195062,-0.021375,-0.692929,0.676718,0.921765,0.608985,0.506401,-0.463288,0.334306,-0.557807,0.831265,0.522821,-0.067333,-0.697259,-0.864346,-0.410744,0.651002,0.903117,;][-0.376773,;-0.814291,;-0.381249,;0.007013,;0.913419,;0.464357,;-0.240375,;-0.419112,;0.426232,;0.731692,;0.004663,;-0.440326,;-0.717654,;0.667816,;0.117100,;0.894823,;-0.881844,;0.085025,;-0.371330,;0.786890,;]
[0.640508,-0.934523,-0.196552,-0.021348,-0.692875,0.676810,0.921665,0.608956,0.506605,-0.462758,0.334308,-0.557914,0.831187,0.523387,-0.067075,-0.697218,-0.864377,-0.410582,0.650920,0.903265,;][-0.375617,;-0.815591,;-0.381219,;0.006835,;0.912125,;0.465628,;-0.239142,;-0.417819,;0.427454,;0.730515,;0.005912,;-0.441589,;-0.716368,;0.668970,;0.116236,;0.893527,;-0.883142,;0.084091,;-0.370063,;0.788162,;]
[0.641100,-0.934478,-0.193634,-0.021400,-0.692976,0.676638,0.921849,0.609011,0.506218,-0.463768,0.334304,-0.557712,0.831332,0.522315,-0.067574,-0.697295,-0.864319,-0.410890,0.651074,0.902991,;][-0.377865,;-0.813076,;-0.381247,;0.007182,;0.914631,;0.463166,;-0.241536,;-0.420321,;0.425084,;0.732799,;0.003492,;-0.439141,;-0.718858,;0.666726,;0.117909,;0.896036,;-0.880629,;0.085914,;-0.372517,;0.785696,;]
[0.640888,-0.934494,-0.194716,-0.021380,-0.692940,0.676699,0.921784,0.608991,0.506356,-0.463405,0.334305,-0.557784,0.831281,0.522701,-0.067388,-0.697268,-0.864339,-0.410776,0.651019,0.903087,;][-0.377036,;-0.813998,;-0.381234,;0.007054,;0.913712,;0.464070,;-0.240655,;-0.419404,;0.425955,;0.731959,;0.004380,;-0.440040,;-0.717944,;0.667552,;0.117293,;0.895116,;-0.881551,;0.085239,;-0.371616,;0.786601,;]
[0.642451,-0.934396,-0.184250,-0.021570,-0.693191,0.676267,0.922199,0.609133,0.505281,-0.466293,0.334297,-0.557243,0.831617,0.519703,-0.069150,-0.697461,-0.864207,-0.411727,0.651413,0.902473,;][-0.384712,;-0.805688,;-0.380947,;0.008247,;0.921999,;0.455883,;-0.248719,;-0.427681,;0.418017,;0.739667,;-0.003661,;-0.431899,;-0.726202,;0.659934,;0.122901,;0.903412,;-0.873245,;0.091659,;-0.379783,;0.778392,;]
[0.641175,-0.934473,-0.193058,-0.021383,-0.692988,0.676609,0.921860,0.609016,0.506147,-0.463953,0.334291,-0.557675,0.831347,0.522167,-0.067615,-0.697305,-0.864311,-0.410889,0.651089,0.902956,;][-0.378292,;-0.812610,;-0.380967,;0.007244,;0.915096,;0.462706,;-0.241990,;-0.420786,;0.424636,;0.733222,;0.003041,;-0.438684,;-0.719322,;0.666285,;0.118198,;0.896502,;-0.880163,;0.086265,;-0.372976,;0.785234,;]
[0.642472,-0.934395,-0.183679,-0.021558,-0.693193,0.676255,0.922192,0.609134,0.505244,-0.466395,0.334286,-0.557225,0.831617,0.519639,-0.069197,-0.697462,-0.864205,-0.411716,0.651415,0.902468,;][-0.385089,;-0.805299,;-0.380664,;0.008304,;0.922387,;0.455495,;-0.249108,;-0.428069,;0.417634,;0.740035,;-0.004042,;-0.431513,;-0.726591,;0.659547,;0.123151,;0.903800,;-0.872856,;0.091992,;-0.380170,;0.778002,;]
[0.641401,-0.934457,-0.191670,-0.021387,-0.693025,0.676540,0.921918,0.609036,0.505981,-0.464390,0.334281,-0.557590,0.831398,0.521738,-0.067809,-0.697333,-0.864290,-0.410985,0.651145,0.902858,;][-0.379337,;-0.811463,;-0.380745,;0.007402,;0.916239,;0.461578,;-0.243097,;-0.421928,;0.423543,;0.734272,;0.001933,;-0.437562,;-0.720460,;0.665235,;0.118949,;0.897647,;-0.879017,;0.087125,;-0.374100,;0.784103,;]
[0.642502,-0.934394,-0.183076,-0.021551,-0.693197,0.676243,0.922190,0.609136,0.505205,-0.466502,0.334278,-0.557207,0.831620,0.519560,-0.069259,-0.697465,-0.864203,-0.411718,0.651420,0.902460,;][-0.385491,;-0.804884,;-0.380423,;0.008365,;0.922802,;0.455082,;-0.249522,;-0.428483,;0.417226,;0.740429,;-0.004449,;-0.431101,;-0.727005,;0.659141,;0.123424,;0.904215,;-0.872441,;0.092347,;-0.380582,;0.777587,;]
[0.641581,-0.934444,-0.190506,-0.021391,-0.693055,0.676485,0.921964,0.609052,0.505848,-0.464742,0.334273,-0.557522,0.831437,0.521392,-0.067973,-0.697356,-0.864273,-0.411064,0.651189,0.902782,;][-0.380209,;-0.810512,;-0.380553,;0.007534,;0.917187,;0.460642,;-0.244018,;-0.422875,;0.422636,;0.735146,;0.001014,;-0.436631,;-0.721405,;0.664361,;0.119573,;0.898596,;-0.878066,;0.087846,;-0.375034,;0.783164,;]
[0.642534,-0.934392,-0.182457,-0.021547,-0.693202,0.676231,0.922190,0.609139,0.505167,-0.466608,0.334272,-0.557188,0.831624,0.519475,-0.069331,-0.697469,-0.864201,-0.411728,0.651427,0.902451,;][-0.385903,;-0.804458,;-0.380205,;0.008428,;0.923227,;0.454658,;-0.249946,;-0.428908,;0.416808,;0.740835,;-0.004866,;-0.430679,;-0.727430,;0.658726,;0.123706,;0.904641,;-0.872015,;0.092711,;-0.381005,;0.777162,;]
[0.641723,-0.934435,-0.189536,-0.021394,-0.693078,0.676442,0.921999,0.609065,0.505741,-0.465025,0.334266,-0.557468,0.831467,0.521114,-0.068109,-0.697373,-0.864260,-0.411129,0.651224,0.902723,;][-0.380934,;-0.809726,;-0.380379,;0.007643,;0.917971,;0.459867,;-0.244781,;-0.423658,;0.421885,;0.735871,;0.000254,;-0.435861,;-0.722186,;0.663636,;0.120089,;0.899380,;-0.877281,;0.088448,;-0.375806,;0.782387,;]
[0.642567,-0.934391,-0.181832,-0.021546,-0.693206,0.676220,0.922192,0.609141,0.505130,-0.466710,0.334266,-0.557171,0.831628,0.519389,-0.069408,-0.697472,-0.864199,-0.411741,0.651433,0.902442,;][-0.386317,;-0.804030,;-0.380002,;0.008492,;0.923654,;0.454232,;-0.250372,;-0.429335,;0.416388,;0.741243,;-0.005284,;-0.430255,;-0.727858,;0.658310,;0.123992,;0.905068,;-0.871587,;0.093080,;-0.381430,;0.776735,;]
[0.641837,-0.934428,-0.188734,-0.021395,-0.693096,0.676408,0.922026,0.609075,0.505654,-0.465253,0.334261,-0.557424,0.831491,0.520889,-0.068220,-0.697387,-0.864251,-0.411179,0.651251,0.902678,;][-0.381533,;-0.809078,;-0.380217,;0.007733,;0.918616,;0.459229,;-0.245411,;-0.424302,;0.421265,;0.736470,;-0.000373,;-0.435227,;-0.722829,;0.663037,;0.120513,;0.900026,;-0.876634,;0.088947,;-0.376443,;0.781747,;]
[0.642599,-0.934390,-0.181205,-0.021545,-0.693211,0.676209,0.922194,0.609144,0.505094,-0.466809,0.334261,-0.557154,0.831632,0.519306,-0.069488,-0.697476,-0.864197,-0.411756,0.651440,0.902433,;][-0.386732,;-0.803603,;-0.379803,;0.008557,;0.924081,;0.453807,;-0.250797,;-0.429761,;0.415969,;0.741652,;-0.005703,;-0.429831,;-0.728284,;0.657895,;0.124280,;0.905494,;-0.871161,;0.093449,;-0.381855,;0.776309,;]
[0.641926,-0.934422,-0.188084,-0.021394,-0.693110,0.676381,0.922046,0.609082,0.505584,-0.465438,0.334256,-0.557389,0.831510,0.520709,-0.068308,-0.697398,-0.864243,-0.411218,0.651273,0.902642,;][-0.382022,;-0.808551,;-0.380062,;0.007807,;0.919143,;0.458708,;-0.245925,;-0.424828,;0.420759,;0.736958,;-0.000884,;-0.434709,;-0.723354,;0.662548,;0.120858,;0.900553,;-0.876106,;0.089356,;-0.376962,;0.781225,;]
[0.642630,-0.934388,-0.180571,-0.021545,-0.693215,0.676199,0.922196,0.609146,0.505060,-0.466903,0.334256,-0.557139,0.831636,0.519225,-0.069570,-0.697479,-0.864195,-0.411771,0.651446,0.902426,;][-0.387150,;-0.803174,;-0.379602,;0.008623,;0.924509,;0.453380,;-0.251225,;-0.430190,;0.415548,;0.742065,;-0.006124,;-0.429405,;-0.728713,;0.657477,;0.124570,;0.905923,;-0.870731,;0.093824,;-0.382281,;0.775880,;]
[0.641997,-0.934418,-0.187576,-0.021389,-0.693122,0.676359,0.922062,0.609089,0.505528,-0.465585,0.334251,-0.557361,0.831524,0.520566,-0.068372,-0.697407,-0.864237,-0.411245,0.651290,0.902615,;][-0.382411,;-0.808132,;-0.379909,;0.007864,;0.919561,;0.458295,;-0.246334,;-0.425246,;0.420357,;0.737346,;-0.001290,;-0.434298,;-0.723771,;0.662158,;0.121128,;0.900972,;-0.875687,;0.089680,;-0.377374,;0.780810,;]
[0.642751,-0.934387,-0.176502,-0.021617,-0.693230,0.676170,0.922199,0.609158,0.504927,-0.467307,0.334252,-0.557083,0.831645,0.518866,-0.070209,-0.697490,-0.864192,-0.411932,0.651473,0.902414,;][-0.389639,;-0.800656,;-0.378914,;0.009040,;0.927027,;0.450866,;-0.253744,;-0.432706,;0.413058,;0.744527,;-0.008604,;-0.426898,;-0.731231,;0.655009,;0.126359,;0.908441,;-0.868213,;0.096123,;-0.384794,;0.773361,;]
[0.642010,-0.934416,-0.187768,-0.021353,-0.693125,0.676350,0.922065,0.609089,0.505508,-0.465625,0.334241,-0.557350,0.831528,0.520533,-0.068299,-0.697409,-0.864234,-0.411209,0.651292,0.902603,;][-0.382383,;-0.808149,;-0.379609,;0.007849,;0.919543,;0.458314,;-0.246313,;-0.425228,;0.420378,;0.737317,;-0.001270,;-0.434317,;-0.723753,;0.662181,;0.121078,;0.900954,;-0.875705,;0.089634,;-0.377355,;0.780828,;]
[0.641542,-0.934925,-0.200625,-0.020204,-0.684729,0.677930,0.922053,0.598955,0.511528,-0.453691,0.334084,-0.563514,0.831001,0.524725,-0.052288,-0.687628,-0.865466,-0.410241,0.649651,0.902723,;][-0.345941,;-0.844665,;-0.411692,;0.007421,;0.884108,;0.494475,;-0.209724,;-0.391744,;0.455137,;0.702805,;0.013204,;-0.469093,;-0.687249,;0.697976,;0.132451,;0.865743,;-0.912123,;0.054414,;-0.341308,;0.817404,;]
[0.641899,-0.934472,-0.190333,-0.021077,-0.691990,0.676517,0.922062,0.607367,0.506376,-0.464033,0.332763,-0.558241,0.831428,0.521178,-0.065703,-0.696173,-0.864386,-0.410730,0.650913,0.902616,;][-0.375457,;-0.815087,;-0.385386,;0.007603,;0.912699,;0.465192,;-0.239364,;-0.418547,;0.426955,;0.730533,;0.001775,;-0.440900,;-0.716816,;0.668978,;0.121411,;0.894116,;-0.882628,;0.082906,;-0.370483,;0.787775,;]
[0.641586,-0.934835,-0.198499,-0.020383,-0.686255,0.677609,0.922053,0.600579,0.510413,-0.456116,0.332902,-0.562399,0.831064,0.523990,-0.055788,-0.689488,-0.865253,-0.410139,0.649814,0.902701,;][-0.352353,;-0.838240,;-0.405724,;0.007391,;0.890303,;0.488102,;-0.216159,;-0.397499,;0.448929,;0.708744,;0.010391,;-0.462878,;-0.693671,;0.691647,;0.128945,;0.871877,;-0.905712,;0.060620,;-0.347654,;0.810971,;]
[0.641834,-0.934514,-0.191868,-0.020929,-0.691212,0.676648,0.922060,0.606274,0.506976,-0.462923,0.332235,-0.558856,0.831366,0.521610,-0.064063,-0.695306,-0.864496,-0.410500,0.650693,0.902626,;][-0.371213,;-0.819339,;-0.389000,;0.007496,;0.908525,;0.469405,;-0.235105,;-0.414514,;0.430987,;0.726421,;0.003529,;-0.444936,;-0.712565,;0.673143,;0.122069,;0.889952,;-0.886869,;0.078792,;-0.366277,;0.792033,;]
[0.641628,-0.934768,-0.196987,-0.020509,-0.687357,0.677387,0.922054,0.601798,0.509631,-0.457757,0.332409,-0.561607,0.831118,0.523463,-0.057986,-0.690810,-0.865095,-0.410136,0.649965,0.902685,;][-0.356787,;-0.833797,;-0.401683,;0.007393,;0.894587,;0.483698,;-0.220611,;-0.401487,;0.444665,;0.712874,;0.008603,;-0.458611,;-0.698113,;0.687281,;0.126919,;0.876123,;-0.901279,;0.064904,;-0.352038,;0.806521,;]
[0.641799,-0.934542,-0.192736,-0.020850,-0.690731,0.676734,0.922059,0.605631,0.507345,-0.462235,0.332057,-0.559235,0.831330,0.521872,-0.063102,-0.694762,-0.864566,-0.410390,0.650571,0.902633,;][-0.368790,;-0.821767,;-0.391087,;0.007450,;0.906150,;0.471810,;-0.232673,;-0.412235,;0.433291,;0.724090,;0.004490,;-0.447240,;-0.710138,;0.675521,;0.122596,;0.887585,;-0.889291,;0.076446,;-0.363877,;0.794464,;]
[0.641664,-0.934715,-0.195891,-0.020599,-0.688188,0.677223,0.922055,0.602730,0.509056,-0.458927,0.332192,-0.561019,0.831164,0.523070,-0.059440,-0.691796,-0.864972,-0.410166,0.650096,0.902673,;][-0.359938,;-0.830639,;-0.398853,;0.007402,;0.897627,;0.480573,;-0.223776,;-0.404315,;0.441654,;0.715813,;0.007426,;-0.455598,;-0.701269,;0.684185,;0.125638,;0.879136,;-0.898130,;0.067942,;-0.355151,;0.803357,;]
[0.641782,-0.934555,-0.193163,-0.020813,-0.690489,0.676778,0.922058,0.605311,0.507533,-0.461884,0.331999,-0.559427,0.831313,0.522004,-0.062620,-0.694488,-0.864601,-0.410342,0.650512,0.902636,;][-0.367592,;-0.822967,;-0.392125,;0.007430,;0.904977,;0.472999,;-0.231471,;-0.411113,;0.434429,;0.722941,;0.004959,;-0.448380,;-0.708939,;0.676697,;0.122893,;0.886416,;-0.890488,;0.075288,;-0.362691,;0.795666,;]
[0.641696,-0.934671,-0.195060,-0.020665,-0.688855,0.677094,0.922056,0.603479,0.508606,-0.459822,0.332088,-0.560554,0.831204,0.522758,-0.060470,-0.692582,-0.864869,-0.410205,0.650209,0.902663,;][-0.362295,;-0.828276,;-0.396760,;0.007409,;0.899896,;0.478237,;-0.226144,;-0.406419,;0.439416,;0.718009,;0.006610,;-0.453360,;-0.703631,;0.681874,;0.124743,;0.881384,;-0.895776,;0.070209,;-0.357476,;0.800990,;]
[0.641778,-0.934557,-0.193290,-0.020802,-0.690443,0.676787,0.922058,0.605234,0.507579,-0.461798,0.331978,-0.559473,0.831310,0.522036,-0.062471,-0.694437,-0.864605,-0.410326,0.650498,0.902636,;][-0.367231,;-0.823328,;-0.392438,;0.007422,;0.904618,;0.473358,;-0.231109,;-0.410763,;0.434776,;0.722589,;0.005120,;-0.448727,;-0.708577,;0.677052,;0.122972,;0.886057,;-0.890849,;0.074937,;-0.362333,;0.796027,;]
[0.641725,-0.934631,-0.194385,-0.020718,-0.689437,0.676981,0.922057,0.604125,0.508225,-0.460566,0.332030,-0.560155,0.831241,0.522492,-0.061261,-0.693264,-0.864775,-0.410245,0.650312,0.902653,;][-0.364190,;-0.826377,;-0.395092,;0.007415,;0.901713,;0.476363,;-0.228049,;-0.408096,;0.437627,;0.719770,;0.006006,;-0.451573,;-0.705529,;0.680020,;0.124048,;0.883183,;-0.893884,;0.072027,;-0.359342,;0.799086,;]
[0.641783,-0.934547,-0.193207,-0.020807,-0.690561,0.676764,0.922058,0.605350,0.507514,-0.461922,0.331964,-0.559402,0.831318,0.521989,-0.062554,-0.694576,-0.864583,-0.410330,0.650517,0.902634,;][-0.367457,;-0.823102,;-0.392242,;0.007419,;0.904826,;0.473137,;-0.231338,;-0.410942,;0.434569,;0.722789,;0.005086,;-0.448522,;-0.708804,;0.676834,;0.122873,;0.886261,;-0.890624,;0.075149,;-0.362552,;0.795800,;]
[0.641753,-0.934590,-0.193788,-0.020764,-0.689991,0.676874,0.922057,0.604732,0.507871,-0.461245,0.331992,-0.559782,0.831278,0.522242,-0.061928,-0.693912,-0.864682,-0.410286,0.650412,0.902644,;][-0.365849,;-0.824714,;-0.393640,;0.007418,;0.903296,;0.474723,;-0.229719,;-0.409547,;0.436070,;0.721305,;0.005522,;-0.450019,;-0.707192,;0.678401,;0.123447,;0.884749,;-0.892228,;0.073614,;-0.360974,;0.797417,;]
[0.641984,-0.934204,-0.190176,-0.021012,-0.694431,0.676008,0.922066,0.609237,0.505316,-0.465987,0.331814,-0.557008,0.831615,0.520401,-0.065502,-0.699076,-0.863834,-0.410586,0.651222,0.902556,;][-0.375712,;-0.814826,;-0.385155,;0.007378,;0.912495,;0.465041,;-0.239670,;-0.417709,;0.427025,;0.730233,;0.003571,;-0.441023,;-0.717078,;0.668855,;0.119769,;0.893798,;-0.882413,;0.082946,;-0.370592,;0.787476,;]
[0.641833,-0.934453,-0.192411,-0.020861,-0.691653,0.676554,0.922060,0.606409,0.506921,-0.463061,0.331884,-0.558759,0.831395,0.521564,-0.063365,-0.695860,-0.864380,-0.410374,0.650694,0.902612,;][-0.369622,;-0.820931,;-0.390362,;0.007401,;0.906819,;0.471013,;-0.233524,;-0.412675,;0.432583,;0.724716,;0.004707,;-0.446546,;-0.710974,;0.674739,;0.121983,;0.888213,;-0.888470,;0.077191,;-0.364659,;0.793616,;]
[0.641994,-0.934176,-0.190067,-0.021018,-0.694698,0.675957,0.922067,0.609456,0.505199,-0.466219,0.331787,-0.556878,0.831635,0.520315,-0.065608,-0.699393,-0.863779,-0.410584,0.651258,0.902550,;][-0.376004,;-0.814534,;-0.384900,;0.007369,;0.912736,;0.464760,;-0.239967,;-0.417886,;0.426770,;0.730466,;0.003584,;-0.440772,;-0.717371,;0.668578,;0.119607,;0.894027,;-0.882126,;0.083212,;-0.370868,;0.787180,;]
[0.641910,-0.934321,-0.191236,-0.020941,-0.693151,0.676262,0.922063,0.607911,0.506073,-0.464637,0.331824,-0.557837,0.831509,0.520952,-0.064517,-0.697604,-0.864092,-0.410470,0.650964,0.902582,;][-0.372824,;-0.817721,;-0.387610,;0.007386,;0.909793,;0.467872,;-0.236755,;-0.415299,;0.429654,;0.727602,;0.004108,;-0.443634,;-0.714183,;0.671643,;0.120775,;0.891135,;-0.885285,;0.080216,;-0.367777,;0.790388,;]
[0.642027,-0.934113,-0.189638,-0.021046,-0.695348,0.675830,0.922068,0.610075,0.504854,-0.466849,0.331767,-0.556497,0.831688,0.520062,-0.065999,-0.700147,-0.863643,-0.410623,0.651376,0.902536,;][-0.377166,;-0.813370,;-0.383911,;0.007359,;0.913793,;0.463627,;-0.241143,;-0.418792,;0.425726,;0.731495,;0.003439,;-0.439738,;-0.718535,;0.667462,;0.119157,;0.895060,;-0.880974,;0.084300,;-0.371991,;0.786007,;]
[0.641988,-0.934182,-0.190145,-0.021013,-0.694637,0.675970,0.922066,0.609377,0.505247,-0.466142,0.331782,-0.556931,0.831629,0.520350,-0.065540,-0.699325,-0.863792,-0.410571,0.651240,0.902551,;][-0.375791,;-0.814748,;-0.385078,;0.007368,;0.912529,;0.464969,;-0.239753,;-0.417692,;0.426964,;0.730264,;0.003635,;-0.440966,;-0.717157,;0.668784,;0.119666,;0.893821,;-0.882338,;0.083009,;-0.370658,;0.787395,;]
[0.642081,-0.934013,-0.188975,-0.021088,-0.696338,0.675634,0.922070,0.611026,0.504321,-0.467808,0.331746,-0.555906,0.831773,0.519669,-0.066591,-0.701289,-0.863432,-0.410691,0.651562,0.902513,;][-0.378964,;-0.811568,;-0.382387,;0.007345,;0.915432,;0.461873,;-0.242962,;-0.420204,;0.424115,;0.733093,;0.003216,;-0.438144,;-0.720337,;0.665737,;0.118479,;0.896665,;-0.879191,;0.085985,;-0.373730,;0.784190,;]
[0.642074,-0.934026,-0.189058,-0.021083,-0.696214,0.675659,0.922070,0.610907,0.504388,-0.467688,0.331748,-0.555980,0.831762,0.519718,-0.066518,-0.701146,-0.863459,-0.410682,0.651539,0.902516,;][-0.378739,;-0.811794,;-0.382577,;0.007346,;0.915227,;0.462093,;-0.242735,;-0.420027,;0.424316,;0.732893,;0.003243,;-0.438343,;-0.720112,;0.665952,;0.118563,;0.896464,;-0.879414,;0.085774,;-0.373513,;0.784417,;]
[0.642153,-0.933877,-0.188124,-0.021141,-0.697651,0.675373,0.922074,0.612278,0.503620,-0.469057,0.331722,-0.555125,0.831888,0.519149,-0.067332,-0.702802,-0.863144,-0.410784,0.651814,0.902483,;][-0.381273,;-0.809256,;-0.380440,;0.007325,;0.917528,;0.459627,;-0.245300,;-0.421999,;0.422059,;0.735140,;0.002964,;-0.436112,;-0.722651,;0.663526,;0.117613,;0.898715,;-0.876904,;0.088143,;-0.375959,;0.781856,;]
[0.642170,-0.933845,-0.187929,-0.021153,-0.697957,0.675311,0.922074,0.612569,0.503457,-0.469345,0.331718,-0.554943,0.831916,0.519029,-0.067499,-0.703154,-0.863075,-0.410806,0.651874,0.902476,;][-0.381800,;-0.808728,;-0.379996,;0.007320,;0.918004,;0.459115,;-0.245834,;-0.422406,;0.421592,;0.735606,;0.002912,;-0.435651,;-0.723179,;0.663023,;0.117415,;0.899180,;-0.876383,;0.088635,;-0.376466,;0.781323,;]
[0.642245,-0.933701,-0.187109,-0.021203,-0.699290,0.675045,0.922078,0.613820,0.502757,-0.470580,0.331698,-0.554159,0.832037,0.518506,-0.068192,-0.704685,-0.862773,-0.410901,0.652133,0.902444,;][-0.384024,;-0.806500,;-0.378129,;0.007298,;0.920008,;0.456955,;-0.248089,;-0.424106,;0.419628,;0.737566,;0.002716,;-0.433713,;-0.725409,;0.660899,;0.116578,;0.901137,;-0.874183,;0.090708,;-0.378607,;0.779073,;]
[0.642282,-0.933630,-0.186724,-0.021227,-0.699932,0.674915,0.922080,0.614418,0.502422,-0.471168,0.331689,-0.553783,0.832097,0.518255,-0.068512,-0.705421,-0.862624,-0.410947,0.652259,0.902428,;][-0.385069,;-0.805455,;-0.377254,;0.007288,;0.920945,;0.455943,;-0.249148,;-0.424898,;0.418710,;0.738485,;0.002636,;-0.432808,;-0.726455,;0.659904,;0.116184,;0.902051,;-0.873152,;0.091680,;-0.379611,;0.778016,;]
[0.642357,-0.933479,-0.185948,-0.021273,-0.701263,0.674647,0.922083,0.615648,0.501735,-0.472369,0.331673,-0.553008,0.832223,0.517738,-0.069147,-0.706945,-0.862310,-0.411043,0.652521,0.902395,;][-0.387176,;-0.803346,;-0.375495,;0.007265,;0.922826,;0.453905,;-0.251286,;-0.426477,;0.416867,;0.740330,;0.002498,;-0.430995,;-0.728566,;0.657900,;0.115388,;0.903885,;-0.871073,;0.093636,;-0.381631,;0.775883,;]
[0.642411,-0.933371,-0.185420,-0.021304,-0.702191,0.674459,0.922086,0.616499,0.501258,-0.473197,0.331662,-0.552470,0.832313,0.517379,-0.069572,-0.708006,-0.862087,-0.411110,0.652706,0.902371,;][-0.388609,;-0.801912,;-0.374300,;0.007248,;0.924100,;0.452520,;-0.252741,;-0.427541,;0.415619,;0.741583,;0.002420,;-0.429768,;-0.730002,;0.656539,;0.114845,;0.905126,;-0.869660,;0.094965,;-0.383003,;0.774431,;]
[0.643569,-0.930726,-0.176343,-0.021801,-0.721812,0.670406,0.922153,0.633150,0.491967,-0.489150,0.331496,-0.541803,0.834427,0.510166,-0.076281,-0.730290,-0.856814,-0.412414,0.656651,0.901792,;][-0.413451,;-0.777131,;-0.353880,;0.006838,;0.945205,;0.428837,;-0.278091,;-0.444237,;0.394767,;0.762625,;0.003025,;-0.409480,;-0.754860,;0.633263,;0.105067,;0.925461,;-0.845409,;0.117680,;-0.406418,;0.749170,;]
[0.642794,-0.932407,-0.181844,-0.021516,-0.710339,0.672894,0.922106,0.623053,0.497733,-0.479714,0.331622,-0.548491,0.833043,0.514705,-0.072502,-0.717404,-0.860204,-0.411415,0.654062,0.902154,;][-0.398187,;-0.792340,;-0.366246,;0.007078,;0.932057,;0.443327,;-0.262504,;-0.433708,;0.407353,;0.749529,;0.002473,;-0.421657,;-0.739588,;0.647475,;0.110838,;0.912717,;-0.860258,;0.103742,;-0.392042,;0.764699,;]
[0.643624,-0.930493,-0.175902,-0.021829,-0.723580,0.670087,0.922156,0.634252,0.491426,-0.490318,0.331513,-0.541203,0.834575,0.509749,-0.076690,-0.732338,-0.856411,-0.412378,0.656861,0.901738,;][-0.414576,;-0.776014,;-0.352887,;0.006793,;0.945889,;0.427786,;-0.279258,;-0.444538,;0.393818,;0.763375,;0.003246,;-0.408554,;-0.755980,;0.632207,;0.104433,;0.926043,;-0.844327,;0.118667,;-0.407417,;0.748012,;]
[0.643181,-0.931489,-0.178844,-0.021680,-0.717102,0.671506,0.922128,0.628665,0.494619,-0.485111,0.331584,-0.544920,0.833764,0.512286,-0.074722,-0.725083,-0.858398,-0.411823,0.655386,0.901953,;][-0.406371,;-0.784178,;-0.359507,;0.006934,;0.938915,;0.435536,;-0.270863,;-0.439049,;0.400494,;0.756395,;0.002763,;-0.414985,;-0.747774,;0.639811,;0.107570,;0.919302,;-0.852276,;0.111207,;-0.399731,;0.756371,;]
[0.643797,-0.930050,-0.174802,-0.021886,-0.726455,0.669482,0.922168,0.636511,0.490171,-0.492477,0.331502,-0.539750,0.834917,0.508747,-0.077450,-0.735576,-0.855562,-0.412547,0.657443,0.901641,;][-0.417620,;-0.772993,;-0.350409,;0.006727,;0.948325,;0.424932,;-0.282383,;-0.446326,;0.391362,;0.765857,;0.003550,;-0.406192,;-0.759018,;0.629396,;0.103182,;0.928358,;-0.841395,;0.121407,;-0.410229,;0.744903,;]
[0.643576,-0.930558,-0.176158,-0.021819,-0.723311,0.670178,0.922153,0.633848,0.491695,-0.490002,0.331537,-0.541531,0.834506,0.509971,-0.076571,-0.732065,-0.856567,-0.412277,0.656716,0.901750,;][-0.413809,;-0.776777,;-0.353467,;0.006798,;0.945129,;0.428510,;-0.278477,;-0.443854,;0.394414,;0.762641,;0.003239,;-0.409118,;-0.755210,;0.632907,;0.104652,;0.925277,;-0.845068,;0.117958,;-0.406679,;0.748791,;]
[0.644058,-0.929415,-0.173258,-0.021962,-0.730304,0.668638,0.922185,0.639652,0.488388,-0.495417,0.331470,-0.537665,0.835420,0.507305,-0.078449,-0.739874,-0.854329,-0.412847,0.658308,0.901504,;][-0.421963,;-0.768687,;-0.346921,;0.006639,;0.951879,;0.420873,;-0.286843,;-0.449002,;0.387914,;0.769465,;0.003997,;-0.402899,;-0.763355,;0.625407,;0.101466,;0.931763,;-0.837225,;0.125319,;-0.414246,;0.740467,;]
[0.643992,-0.929570,-0.173632,-0.021944,-0.729392,0.668843,0.922181,0.638894,0.488823,-0.494713,0.331480,-0.538176,0.835296,0.507659,-0.078215,-0.738860,-0.854633,-0.412767,0.658093,0.901538,;][-0.420902,;-0.769738,;-0.347768,;0.006660,;0.951001,;0.421863,;-0.285753,;-0.448334,;0.388750,;0.768576,;0.003886,;-0.403694,;-0.762295,;0.626379,;0.101878,;0.930919,;-0.838242,;0.124363,;-0.413264,;0.741551,;]
[0.644394,-0.928599,-0.171410,-0.022049,-0.734983,0.667591,0.922210,0.643480,0.486198,-0.498971,0.331419,-0.535093,0.836070,0.505515,-0.079597,-0.745076,-0.852748,-0.413243,0.659407,0.901330,;][-0.427221,;-0.763485,;-0.342731,;0.006529,;0.956172,;0.415986,;-0.292251,;-0.452218,;0.383810,;0.773835,;0.004618,;-0.399001,;-0.768601,;0.620607,;0.099401,;0.935878,;-0.832204,;0.130042,;-0.419092,;0.735090,;]
[0.644439,-0.928490,-0.171173,-0.022060,-0.735588,0.667454,0.922213,0.643975,0.485914,-0.499429,0.331412,-0.534757,0.836157,0.505280,-0.079740,-0.745746,-0.852536,-0.413296,0.659553,0.901307,;][-0.427899,;-0.762814,;-0.342192,;0.006515,;0.956726,;0.415357,;-0.292949,;-0.452632,;0.383286,;0.774399,;0.004704,;-0.398505,;-0.769278,;0.619990,;0.099135,;0.936410,;-0.831558,;0.130650,;-0.419716,;0.734396,;]
[0.644796,-0.927610,-0.169356,-0.022144,-0.740363,0.666368,0.922240,0.647843,0.483692,-0.503007,0.331353,-0.532134,0.836856,0.503439,-0.080827,-0.751033,-0.850840,-0.413719,0.660710,0.901119,;][-0.433134,;-0.757649,;-0.338049,;0.006400,;0.960957,;0.410526,;-0.298345,;-0.455757,;0.379279,;0.778729,;0.005431,;-0.394729,;-0.774497,;0.615244,;0.097073,;0.940460,;-0.826593,;0.135333,;-0.424513,;0.729036,;]
[0.644924,-0.927293,-0.168735,-0.022172,-0.742024,0.665986,0.922249,0.649185,0.482919,-0.504245,0.331329,-0.531219,0.837108,0.502792,-0.081188,-0.752868,-0.850230,-0.413871,0.661122,0.901052,;][-0.434939,;-0.755872,;-0.336627,;0.006360,;0.962408,;0.408869,;-0.300206,;-0.456822,;0.377915,;0.780218,;0.005703,;-0.393450,;-0.776295,;0.613615,;0.096361,;0.941849,;-0.824890,;0.136943,;-0.426161,;0.727187,;]
[0.645262,-0.926447,-0.167160,-0.022242,-0.746348,0.664987,0.922276,0.652643,0.480925,-0.507437,0.331268,-0.528857,0.837778,0.501116,-0.082093,-0.757637,-0.848611,-0.414267,0.662203,0.900872,;][-0.439544,;-0.751345,;-0.333008,;0.006253,;0.966081,;0.404656,;-0.304964,;-0.459486,;0.374470,;0.784003,;0.006449,;-0.390233,;-0.780880,;0.609475,;0.094536,;0.945356,;-0.820561,;0.141042,;-0.430350,;0.722464,;]
[0.645455,-0.925961,-0.166303,-0.022279,-0.748747,0.664427,0.922292,0.654553,0.479822,-0.509197,0.331231,-0.527546,0.838162,0.500179,-0.082573,-0.760278,-0.847685,-0.414494,0.662814,0.900770,;][-0.442072,;-0.748865,;-0.331029,;0.006193,;0.968086,;0.402355,;-0.307579,;-0.460929,;0.372604,;0.786076,;0.006887,;-0.388499,;-0.783396,;0.607213,;0.093532,;0.947270,;-0.818196,;0.143287,;-0.432642,;0.719869,;]
[0.649407,-0.914848,-0.152420,-0.022843,-0.795783,0.653277,0.922661,0.688544,0.460143,-0.541419,0.330639,-0.504129,0.846703,0.482691,-0.089758,-0.811484,-0.827564,-0.418635,0.675044,0.898396,;][-0.484690,;-0.707804,;-0.298044,;0.004937,;0.998767,;0.364912,;-0.352156,;-0.480578,;0.343484,;0.819377,;0.017709,;-0.362359,;-0.825502,;0.570092,;0.075692,;0.975916,;-0.779844,;0.180377,;-0.469921,;0.675814,;]
[0.646665,-0.922080,-0.160620,-0.022565,-0.769424,0.660074,0.922383,0.667850,0.472329,-0.522529,0.331575,-0.518840,0.841063,0.493905,-0.086116,-0.782999,-0.841112,-0.415390,0.666936,0.899876,;][-0.457905,;-0.733358,;-0.318263,;0.005708,;0.978160,;0.388027,;-0.324118,;-0.466819,;0.360700,;0.797656,;0.010568,;-0.377329,;-0.799030,;0.592885,;0.086555,;0.956290,;-0.803339,;0.157069,;-0.446391,;0.703497,;]
[0.649291,-0.914714,-0.152388,-0.022874,-0.797657,0.653072,0.922644,0.688520,0.460254,-0.542010,0.331041,-0.504426,0.846738,0.482908,-0.090080,-0.813545,-0.827833,-0.418205,0.674874,0.898318,;][-0.483995,;-0.708453,;-0.298305,;0.004915,;0.997034,;0.365488,;-0.351501,;-0.478652,;0.343625,;0.818114,;0.017770,;-0.362319,;-0.824750,;0.570504,;0.075661,;0.973983,;-0.780333,;0.179647,;-0.469011,;0.676477,;]
[0.647847,-0.918642,-0.156435,-0.022740,-0.783954,0.656626,0.922492,0.678065,0.466398,-0.532352,0.331492,-0.511822,0.843696,0.488645,-0.088319,-0.798781,-0.835040,-0.416558,0.670637,0.899127,;][-0.470598,;-0.721130,;-0.308396,;0.005323,;0.987008,;0.376891,;-0.337422,;-0.472243,;0.352001,;0.807402,;0.013902,;-0.369500,;-0.811546,;0.581799,;0.081183,;0.964489,;-0.791892,;0.168066,;-0.457389,;0.690356,;]
[0.649588,-0.913733,-0.151520,-0.022912,-0.801376,0.652200,0.922676,0.690782,0.458951,-0.544342,0.331077,-0.502912,0.847477,0.481701,-0.090542,-0.817544,-0.826247,-0.418434,0.675791,0.898095,;][-0.486672,;-0.705949,;-0.296214,;0.004813,;0.998540,;0.363249,;-0.354356,;-0.479286,;0.341927,;0.819979,;0.018713,;-0.360845,;-0.827350,;0.568220,;0.074433,;0.975296,;-0.778041,;0.181898,;-0.471186,;0.673676,;]
[0.648932,-0.915558,-0.153224,-0.022857,-0.795295,0.653782,0.922604,0.686263,0.461601,-0.540120,0.331273,-0.506096,0.846070,0.484219,-0.089822,-0.811012,-0.829539,-0.417707,0.673890,0.898474,;][-0.480919,;-0.711338,;-0.300532,;0.004998,;0.994353,;0.368068,;-0.348285,;-0.476720,;0.345404,;0.815437,;0.016920,;-0.363772,;-0.821699,;0.573015,;0.076842,;0.971353,;-0.782903,;0.176957,;-0.466258,;0.679650,;]
[0.650122,-0.912175,-0.150182,-0.022958,-0.806543,0.650884,0.922736,0.694381,0.456848,-0.547811,0.330964,-0.500405,0.848673,0.479687,-0.091123,-0.823079,-0.823532,-0.418981,0.677343,0.897764,;][-0.491183,;-0.701761,;-0.292811,;0.004657,;1.001599,;0.359521,;-0.359142,;-0.481002,;0.339249,;0.823422,;0.020234,;-0.358613,;-0.831759,;0.564479,;0.072488,;0.978126,;-0.774285,;0.185738,;-0.474969,;0.668977,;]
[0.649934,-0.912709,-0.150633,-0.022944,-0.804846,0.651327,0.922714,0.693151,0.457568,-0.546648,0.331019,-0.501269,0.848263,0.480383,-0.090939,-0.821263,-0.824481,-0.418777,0.676804,0.897875,;][-0.489622,;-0.703206,;-0.293978,;0.004710,;1.000494,;0.360805,;-0.357487,;-0.480354,;0.340157,;0.822204,;0.019711,;-0.359360,;-0.830231,;0.565763,;0.073152,;0.977092,;-0.775572,;0.184405,;-0.473649,;0.670602,;]
[0.650788,-0.910252,-0.148644,-0.023005,-0.812546,0.649324,0.922815,0.698618,0.454372,-0.551872,0.330787,-0.497442,0.850150,0.477268,-0.091746,-0.829493,-0.820168,-0.419680,0.679238,0.897360,;][-0.496543,;-0.696838,;-0.288803,;0.004469,;1.005276,;0.355158,;-0.364840,;-0.483068,;0.336192,;0.827545,;0.022110,;-0.356127,;-0.836989,;0.560099,;0.070178,;0.981543,;-0.769928,;0.190291,;-0.479448,;0.663390,;]
[0.650870,-0.910016,-0.148463,-0.023011,-0.813262,0.649136,0.922825,0.699124,0.454077,-0.552356,0.330763,-0.497088,0.850332,0.476976,-0.091816,-0.830256,-0.819754,-0.419767,0.679470,0.897311,;][-0.497186,;-0.696252,;-0.288325,;0.004446,;1.005718,;0.354640,;-0.365524,;-0.483315,;0.335834,;0.828040,;0.022341,;-0.355841,;-0.837616,;0.559578,;0.069900,;0.981954,;-0.769414,;0.190836,;-0.479983,;0.662719,;]
[0.651522,-0.908119,-0.147076,-0.023051,-0.818892,0.647662,0.922905,0.703043,0.451791,-0.556144,0.330583,-0.494354,0.851788,0.474698,-0.092351,-0.836252,-0.816469,-0.420445,0.681294,0.896912,;][-0.502163,;-0.691746,;-0.284623,;0.004264,;1.009066,;0.350669,;-0.370837,;-0.485124,;0.333116,;0.831841,;0.024186,;-0.353692,;-0.842456,;0.555572,;0.067730,;0.985053,;-0.765488,;0.195043,;-0.484094,;0.657522,;]
[0.651750,-0.907453,-0.146614,-0.023064,-0.820809,0.647158,0.922934,0.704367,0.451019,-0.557430,0.330518,-0.493432,0.852299,0.473921,-0.092524,-0.838291,-0.815323,-0.420680,0.681925,0.896771,;][-0.503851,;-0.690233,;-0.283372,;0.004201,;1.010189,;0.349339,;-0.372643,;-0.485716,;0.332219,;0.833126,;0.024831,;-0.352997,;-0.844093,;0.554227,;0.066989,;0.986090,;-0.764183,;0.196464,;-0.485478,;0.655757,;]
[0.652279,-0.905896,-0.145583,-0.023093,-0.825200,0.646004,0.923003,0.707354,0.449280,-0.560360,0.330372,-0.491356,0.853495,0.472149,-0.092903,-0.842950,-0.812669,-0.421219,0.683379,0.896442,;][-0.507668,;-0.686841,;-0.280545,;0.004055,;1.012677,;0.346366,;-0.376738,;-0.486983,;0.330237,;0.836006,;0.026338,;-0.351485,;-0.847786,;0.551208,;0.065298,;0.988376,;-0.761283,;0.199669,;-0.488580,;0.651762,;]
[0.652575,-0.905020,-0.145032,-0.023107,-0.827605,0.645370,0.923043,0.708972,0.448338,-0.561959,0.330290,-0.490233,0.854167,0.471180,-0.093100,-0.845496,-0.811188,-0.421517,0.684184,0.896256,;][-0.509745,;-0.685015,;-0.279010,;0.003974,;1.014009,;0.344770,;-0.378972,;-0.487640,;0.329188,;0.837565,;0.027182,;-0.350700,;-0.849790,;0.549581,;0.064370,;0.989596,;-0.759739,;0.201407,;-0.490255,;0.649586,;]
[0.656391,-0.893221,-0.139425,-0.023248,-0.856194,0.637840,0.923635,0.725922,0.438319,-0.580425,0.329511,-0.478525,0.863409,0.460168,-0.094964,-0.875246,-0.792844,-0.424919,0.694026,0.893564,;][-0.532752,;-0.666448,;-0.261972,;0.002905,;1.025706,;0.328731,;-0.404303,;-0.491154,;0.319479,;0.853481,;0.038507,;-0.344505,;-0.871356,;0.532509,;0.053313,;0.999665,;-0.745126,;0.220144,;-0.507306,;0.625240,;]
[0.654172,-0.899951,-0.142345,-0.023192,-0.840943,0.641918,0.923271,0.716682,0.443735,-0.570450,0.330103,-0.484882,0.858182,0.466257,-0.094125,-0.859359,-0.803324,-0.422880,0.688478,0.895068,;][-0.519990,;-0.676384,;-0.271318,;0.003507,;1.018841,;0.337320,;-0.390224,;-0.489038,;0.324435,;0.844451,;0.032058,;-0.347397,;-0.859395,;0.541689,;0.059458,;0.993660,;-0.752596,;0.209764,;-0.497837,;0.638728,;]
[0.655880,-0.894696,-0.140072,-0.023243,-0.852980,0.638720,0.923552,0.723682,0.439585,-0.578251,0.329736,-0.480051,0.862323,0.461578,-0.094827,-0.871832,-0.795316,-0.424381,0.692763,0.893853,;][-0.529778,;-0.668808,;-0.264094,;0.003032,;1.023611,;0.330783,;-0.401076,;-0.490200,;0.320643,;0.851147,;0.037123,;-0.345195,;-0.868488,;0.534621,;0.054670,;0.997714,;-0.746869,;0.217678,;-0.504924,;0.628353,;]
[0.655050,-0.897231,-0.141107,-0.023223,-0.847376,0.640216,0.923411,0.720434,0.441509,-0.574605,0.329930,-0.482290,0.860325,0.463780,-0.094529,-0.866033,-0.799148,-0.423650,0.690719,0.894439,;][-0.525159,;-0.672281,;-0.267491,;0.003261,;1.021365,;0.333784,;-0.395939,;-0.489699,;0.322332,;0.847983,;0.034672,;-0.346106,;-0.864213,;0.537892,;0.056948,;0.995807,;-0.749414,;0.213955,;-0.501608,;0.633249,;]
[0.655761,-0.895049,-0.140235,-0.023241,-0.852166,0.638938,0.923534,0.723138,0.439894,-0.577713,0.329781,-0.480421,0.862063,0.461918,-0.094785,-0.870969,-0.795902,-0.424259,0.692461,0.893922,;][-0.529067,;-0.669387,;-0.264605,;0.003062,;1.023129,;0.331284,;-0.400306,;-0.489988,;0.320937,;0.850599,;0.036797,;-0.345380,;-0.867801,;0.535137,;0.054994,;0.997269,;-0.747312,;0.217090,;-0.504356,;0.629098,;]
[0.655465,-0.895955,-0.140582,-0.023234,-0.850224,0.639458,0.923481,0.722056,0.440543,-0.576450,0.329844,-0.481170,0.861338,0.462674,-0.094687,-0.868973,-0.797233,-0.424008,0.691745,0.894139,;][-0.527474,;-0.670536,;-0.265781,;0.003145,;1.022435,;0.332279,;-0.398518,;-0.489904,;0.321479,;0.849542,;0.035910,;-0.345642,;-0.866347,;0.536244,;0.055799,;0.996701,;-0.748126,;0.215816,;-0.503252,;0.630792,;]
[0.655708,-0.895211,-0.140305,-0.023239,-0.851798,0.639036,0.923525,0.722915,0.440024,-0.577474,0.329796,-0.480574,0.861939,0.462064,-0.094766,-0.870584,-0.796156,-0.424210,0.692327,0.893957,;][-0.528763,;-0.669626,;-0.264826,;0.003076,;1.022958,;0.331490,;-0.399972,;-0.489933,;0.321056,;0.850381,;0.036645,;-0.345450,;-0.867514,;0.535355,;0.055139,;0.997119,;-0.747492,;0.216842,;-0.504128,;0.629419,;]
[0.655570,-0.895632,-0.140457,-0.023236,-0.850922,0.639271,0.923500,0.722445,0.440310,-0.576903,0.329822,-0.480901,0.861596,0.462404,-0.094723,-0.869690,-0.796758,-0.424097,0.692000,0.894062,;][-0.528042,;-0.670121,;-0.265361,;0.003116,;1.022682,;0.331920,;-0.399155,;-0.489936,;0.321282,;0.849919,;0.036224,;-0.345544,;-0.866866,;0.535847,;0.055513,;0.996904,;-0.747828,;0.216271,;-0.503647,;0.630187,;]
[0.655576,-0.895613,-0.140450,-0.023236,-0.850962,0.639260,0.923501,0.722466,0.440297,-0.576930,0.329821,-0.480886,0.861612,0.462388,-0.094725,-0.869731,-0.796731,-0.424102,0.692015,0.894057,;][-0.528076,;-0.670099,;-0.265336,;0.003114,;1.022694,;0.331901,;-0.399194,;-0.489934,;0.321272,;0.849940,;0.036244,;-0.345540,;-0.866896,;0.535824,;0.055495,;0.996913,;-0.747814,;0.216297,;-0.503669,;0.630152,;]
[0.655431,-0.896054,-0.140601,-0.023234,-0.850075,0.639501,0.923473,0.722008,0.440581,-0.576347,0.329846,-0.481208,0.861246,0.462732,-0.094684,-0.868834,-0.797344,-0.423988,0.691679,0.894171,;][-0.527337,;-0.670578,;-0.265887,;0.003156,;1.022454,;0.332320,;-0.398349,;-0.489980,;0.321483,;0.849484,;0.035792,;-0.345610,;-0.866245,;0.536317,;0.055888,;0.996739,;-0.748124,;0.215718,;-0.503198,;0.630941,;]
[0.655296,-0.896459,-0.140736,-0.023231,-0.849273,0.639719,0.923446,0.721602,0.440835,-0.575818,0.329868,-0.481496,0.860906,0.463045,-0.094646,-0.868025,-0.797900,-0.423884,0.691372,0.894279,;][-0.526664,;-0.671002,;-0.266392,;0.003195,;1.022256,;0.332692,;-0.397574,;-0.490042,;0.321666,;0.849078,;0.035370,;-0.345662,;-0.865657,;0.536761,;0.056251,;0.996603,;-0.748391,;0.215191,;-0.502779,;0.631662,;]
[0.655081,-0.897106,-0.140947,-0.023227,-0.848014,0.640065,0.923402,0.720975,0.441232,-0.574982,0.329900,-0.481941,0.860356,0.463536,-0.094589,-0.866762,-0.798775,-0.423721,0.690885,0.894454,;][-0.525595,;-0.671653,;-0.267196,;0.003259,;1.021976,;0.333265,;-0.396338,;-0.490173,;0.321942,;0.848447,;0.034685,;-0.345726,;-0.864735,;0.537459,;0.056836,;0.996425,;-0.748790,;0.214360,;-0.502132,;0.632807,;]
[0.654833,-0.897847,-0.141184,-0.023222,-0.846597,0.640456,0.923351,0.720282,0.441676,-0.574034,0.329936,-0.482437,0.859720,0.464092,-0.094524,-0.865346,-0.799764,-0.423537,0.690332,0.894660,;][-0.524377,;-0.672370,;-0.268116,;0.003334,;1.021698,;0.333900,;-0.394920,;-0.490361,;0.322239,;0.847745,;0.033885,;-0.345776,;-0.863697,;0.538246,;0.057511,;0.996266,;-0.749214,;0.213416,;-0.501414,;0.634114,;]
[0.654531,-0.898744,-0.141465,-0.023217,-0.844912,0.640925,0.923287,0.719472,0.442202,-0.572899,0.329976,-0.483022,0.858941,0.464756,-0.094447,-0.863672,-0.800943,-0.423318,0.689667,0.894916,;][-0.522906,;-0.673203,;-0.269233,;0.003426,;1.021413,;0.334643,;-0.393197,;-0.490635,;0.322577,;0.846920,;0.032896,;-0.345810,;-0.862460,;0.539187,;0.058340,;0.996129,;-0.749689,;0.212283,;-0.500573,;0.635695,;]
[0.650414,-0.910018,-0.144622,-0.023154,-0.826368,0.646536,0.922263,0.711413,0.448025,-0.559291,0.330361,-0.489257,0.848169,0.472693,-0.093625,-0.845853,-0.814482,-0.420676,0.681542,0.898835,;][-0.503340,;-0.680513,;-0.284721,;0.004894,;1.022506,;0.341908,;-0.369146,;-0.498722,;0.324826,;0.838049,;0.017372,;-0.343408,;-0.847916,;0.550534,;0.070674,;0.999465,;-0.751876,;0.197682,;-0.492052,;0.656820,;]
[0.650689,-0.909261,-0.144401,-0.023160,-0.827585,0.646154,0.922331,0.711941,0.447636,-0.560210,0.330348,-0.488847,0.848911,0.472156,-0.093691,-0.847012,-0.813582,-0.420843,0.682084,0.898557,;][-0.504677,;-0.680015,;-0.283641,;0.004790,;1.022310,;0.341418,;-0.370810,;-0.498094,;0.324674,;0.838588,;0.018463,;-0.343580,;-0.848862,;0.549743,;0.069809,;0.999117,;-0.751721,;0.198673,;-0.492579,;0.655364,;]
[0.649837,-0.911568,-0.145064,-0.023143,-0.823960,0.647310,0.922116,0.710386,0.448803,-0.557426,0.330389,-0.490072,0.846625,0.473784,-0.093497,-0.843576,-0.816288,-0.420333,0.680437,0.899429,;][-0.500516,;-0.681416,;-0.287027,;0.005122,;1.023070,;0.342843,;-0.365588,;-0.500189,;0.325063,;0.836973,;0.014980,;-0.342939,;-0.845990,;0.552159,;0.072550,;1.000356,;-0.752045,;0.195602,;-0.491029,;0.659894,;]
[0.649220,-0.913219,-0.145540,-0.023130,-0.821425,0.648137,0.921957,0.709305,0.449629,-0.555437,0.330413,-0.490933,0.844962,0.474951,-0.093355,-0.841186,-0.818202,-0.419974,0.679262,0.900077,;][-0.497462,;-0.682359,;-0.289541,;0.005372,;1.023783,;0.343828,;-0.361718,;-0.501848,;0.325301,;0.835866,;0.012355,;-0.342404,;-0.843955,;0.553918,;0.074605,;1.001424,;-0.752196,;0.193359,;-0.489978,;0.663225,;]
[0.648542,-0.915009,-0.146055,-0.023115,-0.818745,0.649032,0.921779,0.708169,0.450515,-0.553288,0.330433,-0.491848,0.843134,0.476217,-0.093200,-0.838673,-0.820254,-0.419587,0.677993,0.900806,;][-0.494058,;-0.683304,;-0.292377,;0.005660,;1.024746,;0.344854,;-0.357361,;-0.503833,;0.325508,;0.834715,;0.009350,;-0.341730,;-0.841772,;0.555856,;0.076944,;1.002782,;-0.752258,;0.190871,;-0.488902,;0.666944,;]
[0.647873,-0.916749,-0.146558,-0.023101,-0.816201,0.649903,0.921600,0.707096,0.451368,-0.551200,0.330448,-0.492723,0.841330,0.477451,-0.093046,-0.836300,-0.822227,-0.419215,0.676761,0.901542,;][-0.490636,;-0.684144,;-0.295264,;0.005958,;1.025887,;0.345811,;-0.352935,;-0.505969,;0.325655,;0.833649,;0.006245,;-0.340972,;-0.839668,;0.557785,;0.079349,;1.004322,;-0.752210,;0.188381,;-0.487923,;0.670689,;]
[0.647206,-0.918458,-0.147054,-0.023086,-0.813765,0.650758,0.921418,0.706073,0.452198,-0.549154,0.330458,-0.493569,0.839531,0.478667,-0.092892,-0.834039,-0.824144,-0.418852,0.675554,0.902293,;][-0.487150,;-0.684885,;-0.298246,;0.006271,;1.027230,;0.346706,;-0.348376,;-0.508291,;0.325742,;0.832658,;0.002991,;-0.340115,;-0.837623,;0.559728,;0.081856,;1.006072,;-0.752044,;0.185855,;-0.487033,;0.674511,;]
[0.646553,-0.920103,-0.147535,-0.023070,-0.811477,0.651582,0.921237,0.705114,0.452992,-0.547184,0.330462,-0.494370,0.837774,0.479845,-0.092742,-0.831926,-0.825972,-0.418505,0.674393,0.903046,;][-0.483646,;-0.685508,;-0.301286,;0.006595,;1.028764,;0.347524,;-0.343743,;-0.510774,;0.325763,;0.831761,;-0.000374,;-0.339165,;-0.835674,;0.561660,;0.084436,;1.008016,;-0.751757,;0.183329,;-0.486251,;0.678356,;]
